tree
version=v4
num_class=1
num_tree_per_iteration=1
label_index=0
max_feature_idx=3
objective=regression
feature_names=MES DIA AÑO DIA_SEMANA
feature_infos=[1:12] [1:31] [2022:2024] [0:6]
tree_sizes=633 623 622 623 625 710 697 696 693 699 709 712 702 709 711 700 623 620 702 626 542 623 542 617 541 699 630 699 699 698 626 627 626 629 626 546 626 626 626 622 626 621 621 621 616 700 626 626 626 705 625 628 705 706 625 697 622 698 695 697 624 617 620 695 622 618 539 622 543 622 544 538 541 543 542 634 710 630 709 633 624 625 623 624 621 546 620 622 621 697 624 700 625 699 702 627 546 543 627 627 547 700 544 697 546 627 628 632 627 630 626 548 627 546 627 625 625 625 626 625 627 626 632 631 626 544 538 623 623 625 625 626 626 624 625 627 615 623 625 628 622 617 623 621 622 628 709 710 700 704 625 622 626 625 542 619 627 625 620 624 627 628 629 628 629 628 629 626 630 626 630 627 626 705 629 621 626 549 549 622 624 623 627 621 624 626 549 628 625 626 629 703 627 625 625 627 700 625 625 627 700 621 703 621 701 706 702 702 703 702 624 624 623 627 627 621 623 622 622 621 706 707 707 629 703 621 550 626 626 551 619 624 626 623 626 623 622 623 625 629 627 626 627 628 627 702 704 620 622 702 621 619 620 621 627 547 548 546 547 548 623 619 700 625 625 551 548 624 549 623 547 622 546 549 548 626 624 627 627 623 623 627 626 629 626 623 626 625 624 625 703 625 709 629 626 626 708 702 624 708 625 619 548 548 623 627 623 624 633 624 624 620 621 627 628 624 622 624 626 625 631 629 626 706 631 626 627 625 628 627 623 626 630 627 629 708 708 710 631 709 702 698 625 703 705 624 624 622 622 623 551 550 550 549 626 545 546 550 547 627 627 704 708 707 707 545 625 546 624 627 628 628 628 625 626 634 632 633 630 634 627 622 625 625 627 702 703 628 700 625 705 706 705 706 708 549 545 549 544 547 631 630 702 631 629 707 706 629 708 627 625 624 623 622 623 620 700 620 623 700 622 622 623 622 621 784 782 704 707 702 711 634 632 712 631 702 618 702 704 623 631 629 627 624 632 623 629 626 621 625 706 626 701 710 700 630 622 625 628 627 629 624 629 623 627 623 625 626 624 544 623 625 632 706 706 622 624 624 626 624 625 626 706 625 627 707 624 629 706 621 624 546 623 547 547 708 715 631 712 631 549 547 625 548 624 627 632 709 634 635 623 548 543 626 623 626 625 629 700 629 628 549 549 625 627 624 621 624 622 620 702 702 626 626 707 628 625 623 626 629 628 628 627 628 626 620 622 541 622 625 630 624 627 545 629 626 627 627 626 621 630 707 706 705 705 548 628 546 631 624 625 623 627 625 625 623 625 627 626 622 625 626 623 626 623 698 787 705 630 627 626 704 625 627 625 708 708 707 708 709 705 704 706 708 703 633 553 549 549 632 626 625 544 628 625 626 628 625 625 626 625 623 623 623 623 700 630 704 704 552 626 624 623 623 627 623 622 622 622 623 548 545 632 633 541 623 623 689 696 624 621 543 622 621 623 627 704 702 702 703 625 625 625 625 629 703 698 623 623 625 706 709 631 704 632 548 549 629 548 550 624 621 627 624 627 624 629 697 620 701 623 625 548 621 624 626 702 706 626 626 623 626 625 625 623 698 703 627 698 701 627 627 624 624 628 629 626 628 626 709 543 625 701 700 626 630 628 629 625 626 622 627 626 623 625 626 548 629 549 624 625 627 627 626 629 545 548 550 546 626 632 630 629 633 632 630 631 554 631 552 629 625 622 626 621 627 626 626 624 628 632 627 632 628 629 710 627 626 625 706 624 628 624 627 626 624 620 623 620 631 704 708 707 708 704 628 630 629 629 629 622 624 622 625 627 548 622 548 704 627 709 710 627 627 628 626 621 628 629 632 548 547 548 546 549 708 709 546 625 546 623 626 624 627 624 627 550 550 625 627 627 627 622 627 707 546 545 544 698 702 547 545 546 545 549 624 629 631 630 706 622 620 633 624 624 633 624 621 627 627 626 632 629 627 632 701 706 701 706 705 627 625 627 711 627 627 630 624 627 551 628 630 624 626 625 619 623 547 626 625 628 629 623 626 629 548 627 623 626 548 636 712 634 710 708 629 628 624 627 629 623 628 624 625 628 550 625 625 707 706 547 548 547 549 551 542 623 547 547 626 549 622 623 623 626 626 625 625 626 622 627 553 630 629 629 626 624 620 626 544 626 625 627 624 624 626 624 626 624 623 624 625 623 622 625 629 632 631 630 628 624 622 619 629 627 621 702 623 703 624 630 622 630 622 625 626 624 626 625 626

Tree=0
num_leaves=6
num_cat=0
split_feature=1 2 1 1 1
split_gain=58374.8 86313.6 29345.5 69988.3 0.327916
threshold=23.500000000000004 2022.5000000000002 14.500000000000002 6.5000000000000009 10.500000000000002
decision_type=2 2 2 2 2
left_child=1 4 3 -3 -1
right_child=-2 2 -4 -5 -6
leaf_value=-0.55981992058654761 0.28358492410571151 0.18184958314882452 0.19969136152663261 -0.56033213418514582 -0.56158913256020404
leaf_weight=22 33 27 38 24 20
leaf_count=22 33 27 38 24 20
internal_value=-0.0389071 -0.187004 -0.0106715 -0.167412 -0.560662
internal_weight=0 131 89 51 42
internal_count=164 131 89 51 42
is_linear=0
shrinkage=1


Tree=1
num_leaves=6
num_cat=0
split_feature=1 2 1 0 0
split_gain=57213.2 84595.9 28761.5 113858 16094.1
threshold=23.500000000000004 2022.5000000000002 14.500000000000002 4.5000000000000009 9.5000000000000018
decision_type=2 2 2 2 2
left_child=1 4 3 -3 -1
right_child=-2 2 -4 -5 -6
leaf_value=-0.70318134145303202 0.31926702627629944 0.41526031450791789 0.23621244832089072 -0.53875736795622731 -0.31122996997833252
leaf_weight=22 33 22 38 29 20
leaf_count=22 33 22 38 29 20
internal_value=0 -0.146616 0.0279532 -0.12722 -0.516538
internal_weight=0 131 89 51 42
internal_count=164 131 89 51 42
is_linear=0
shrinkage=0.01


Tree=2
num_leaves=6
num_cat=0
split_feature=3 1 1 1 0
split_gain=56531 95211.2 92573.1 62247.2 57325.7
threshold=4.5000000000000009 23.500000000000004 19.500000000000004 4.5000000000000009 6.5000000000000009
decision_type=2 2 2 2 2
left_child=1 3 -2 -1 -5
right_child=2 -3 -4 4 -6
leaf_value=0.38436140392137608 -0.58501062491001232 0.70876323449611667 0.23851296742757161 -0.50849617502906108 0.10668601785387312
leaf_weight=23 39 20 21 33 28
leaf_count=23 39 20 21 33 28
internal_value=0 0.088677 -0.296777 -0.0589625 -0.226117
internal_weight=0 104 60 84 61
internal_count=164 104 60 84 61
is_linear=0
shrinkage=0.01


Tree=3
num_leaves=6
num_cat=0
split_feature=3 1 1 1 1
split_gain=55406 93316.5 90730.9 61008.5 35186.1
threshold=4.5000000000000009 23.500000000000004 19.500000000000004 4.5000000000000009 14.500000000000002
decision_type=2 2 2 2 2
left_child=1 3 -2 -1 -5
right_child=2 -3 -4 4 -6
leaf_value=0.38051777787830515 -0.57916049125867008 0.70167558795213691 0.2361278334118071 -0.47614416204649829 0.0047796001285314565
leaf_weight=23 39 20 21 29 32
leaf_count=23 39 20 21 29 32
internal_value=0 0.0877903 -0.29381 -0.0583729 -0.223856
internal_weight=0 104 60 84 61
internal_count=164 104 60 84 61
is_linear=0
shrinkage=0.01


Tree=4
num_leaves=6
num_cat=0
split_feature=3 0 0 3 0
split_gain=54303.5 51362.4 40479.6 22624.1 27970.4
threshold=4.5000000000000009 4.5000000000000009 8.5000000000000018 3.5000000000000004 4.5000000000000009
decision_type=2 2 2 2 2
left_child=2 -2 3 4 -1
right_child=1 -3 -4 -5 -6
leaf_value=0.26817094326019286 0.10785003843761626 -0.50556769395485901 0.37629573128440164 -0.33264343357086185 -0.20468008865009654
leaf_weight=29 21 39 33 20 22
leaf_count=29 21 39 33 20 22
internal_value=0 -0.290871 0.0869124 -0.0475898 0.064196
internal_weight=0 60 104 71 51
internal_count=164 60 104 71 51
is_linear=0
shrinkage=0.01


Tree=5
num_leaves=7
num_cat=0
split_feature=3 0 3 0 3 0
split_gain=66325.6 22369.1 24518.1 6374.56 65667.4 4035.06
threshold=1.0000000180025095e-35 6.5000000000000009 3.5000000000000004 9.5000000000000018 4.5000000000000009 2.5000000000000004
decision_type=2 2 2 2 2 2
left_child=-1 2 -2 -3 -5 -4
right_child=1 3 5 4 -6 -7
leaf_value=0.44116003596264386 -0.0047300558288892111 0.1276157694277556 -0.50120243254162022 -0.47490283012390139 0.31592195783342636 -0.31317360496520996
leaf_weight=23 24 23 21 21 21 25
leaf_count=23 24 23 21 21 21 25
internal_value=0 -0.139789 -0.26383 -0.0062067 -0.0794904 -0.399013
internal_weight=0 135 70 65 42 46
internal_count=158 135 70 65 42 46
is_linear=0
shrinkage=0.01


Tree=6
num_leaves=7
num_cat=0
split_feature=1 1 1 1 1 3
split_gain=84175.5 180518 174146 61401.4 42093.9 12878.5
threshold=10.500000000000002 16.500000000000004 6.5000000000000009 3.5000000000000004 20.500000000000004 3.5000000000000004
decision_type=2 2 2 2 2 2
left_child=2 -2 3 -1 -3 -6
right_child=1 4 -4 -5 5 -7
leaf_value=-0.31968537869660751 0.84861765338824346 -0.49384162686087868 -1.028064171542292 0.41927323623137042 -0.13753470575809479 0.21308005506342109
leaf_weight=23 26 22 23 22 20 22
leaf_count=23 26 22 23 22 20 22
internal_value=0 0.145962 -0.320209 0.0415833 -0.139491 0.0461206
internal_weight=0 90 68 45 64 42
internal_count=158 90 68 45 64 42
is_linear=0
shrinkage=0.01


Tree=7
num_leaves=7
num_cat=0
split_feature=1 1 1 1 1 3
split_gain=82500.5 176926 170680 60179.5 41256.2 12622.2
threshold=10.500000000000002 16.500000000000004 6.5000000000000009 3.5000000000000004 20.500000000000004 3.5000000000000004
decision_type=2 2 2 2 2 2
left_child=2 -2 3 -1 -3 -6
right_child=1 4 -4 -5 5 -7
leaf_value=-0.31648850772691811 0.84013149490723238 -0.48890319130637433 -1.017783555984497 0.41508049553090881 -0.1361593531370163 0.21094925360246136
leaf_weight=23 26 22 23 22 20 22
leaf_count=23 26 22 23 22 20 22
internal_value=0 0.144503 -0.317007 0.0411674 -0.138096 0.0456594
internal_weight=0 90 68 45 64 42
internal_count=158 90 68 45 64 42
is_linear=0
shrinkage=0.01


Tree=8
num_leaves=7
num_cat=0
split_feature=1 1 1 1 1 3
split_gain=80858.7 173405 167284 58981.9 40435.2 12371
threshold=10.500000000000002 16.500000000000004 6.5000000000000009 3.5000000000000004 20.500000000000004 3.5000000000000004
decision_type=2 2 2 2 2 2
left_child=2 -2 3 -1 -3 -6
right_child=1 4 -4 -5 5 -7
leaf_value=-0.31332364911618443 0.83173018549497313 -0.48401414697820494 -1.007605711688166 0.41092971552502028 -0.13479778397083284 0.208839750289917
leaf_weight=23 26 22 23 22 20 22
leaf_count=23 26 22 23 22 20 22
internal_value=0 0.143058 -0.313837 0.0407558 -0.136716 0.0452028
internal_weight=0 90 68 45 64 42
internal_count=158 90 68 45 64 42
is_linear=0
shrinkage=0.01


Tree=9
num_leaves=7
num_cat=0
split_feature=1 1 1 1 1 3
split_gain=79249.6 169954 163955 57808.2 39630.5 12124.8
threshold=10.500000000000002 16.500000000000004 6.5000000000000009 3.5000000000000004 20.500000000000004 3.5000000000000004
decision_type=2 2 2 2 2 2
left_child=2 -2 3 -1 -3 -6
right_child=1 4 -4 -5 5 -7
leaf_value=-0.31019041102865469 0.82341288721905304 -0.47917399102991276 -0.99752967336903453 0.40682042035189542 -0.13344978928565979 0.20675135872580788
leaf_weight=23 26 22 23 22 20 22
leaf_count=23 26 22 23 22 20 22
internal_value=0 0.141627 -0.310699 0.0403482 -0.135348 0.0447508
internal_weight=0 90 68 45 64 42
internal_count=158 90 68 45 64 42
is_linear=0
shrinkage=0.01


Tree=10
num_leaves=7
num_cat=0
split_feature=3 1 1 3 0 1
split_gain=76294.6 52069 65064.7 53869.5 17784.3 3337.05
threshold=1.0000000180025095e-35 12.500000000000002 24.500000000000004 4.5000000000000009 8.5000000000000018 5.5000000000000009
decision_type=2 2 2 2 2 2
left_child=-1 4 3 -3 5 -2
right_child=1 2 -4 -5 -6 -7
leaf_value=0.41253117990493776 -0.2698532269217751 -0.99785613215487945 -0.0017192170930945357 -0.32726433563232421 0.13962218659264702 -0.095678572221235797
leaf_weight=20 22 23 23 25 28 22
leaf_count=20 22 23 23 25 28 22
internal_value=0 -0.246882 -0.43904 -0.64859 -0.0573928 -0.182766
internal_weight=0 143 71 48 72 44
internal_count=163 143 71 48 72 44
is_linear=0
shrinkage=0.01


Tree=11
num_leaves=7
num_cat=0
split_feature=3 2 0 3 3 0
split_gain=74776.3 54537.6 50626.1 69021.5 39227.4 20855.3
threshold=1.0000000180025095e-35 2023.5000000000002 9.5000000000000018 4.5000000000000009 3.5000000000000004 5.5000000000000009
decision_type=2 2 2 2 2 2
left_child=-1 2 4 -4 -2 -6
right_child=1 -3 3 -5 5 -7
leaf_value=0.4084058527946472 0.35857726583621746 -0.64018938362598421 -0.79276715071304993 -0.0092956473610617905 0.088964747474307104 -0.33473708849686845
leaf_weight=20 23 28 23 22 21 26
leaf_count=20 23 28 23 22 21 26
internal_value=0 -0.244413 -0.14805 -0.409737 0.0201768 -0.145424
internal_weight=0 143 115 45 70 47
internal_count=163 143 115 45 70 47
is_linear=0
shrinkage=0.01


Tree=12
num_leaves=7
num_cat=0
split_feature=0 2 1 0 1 1
split_gain=47702.4 40430.5 63650.9 36100.8 59629.6 16838
threshold=3.5000000000000004 2022.5000000000002 15.500000000000002 5.5000000000000009 13.500000000000002 15.500000000000002
decision_type=2 2 2 2 2 2
left_child=5 2 -2 -3 -5 -1
right_child=1 3 -4 4 -6 -7
leaf_value=-0.2654261742035548 0.48668070122047707 0.1053508989016215 -0.24737871591533936 -0.73518716936526096 -0.022645223935445151 -0.65829807251691819
leaf_weight=24 27 24 21 23 24 20
leaf_count=24 27 24 21 23 24 20
internal_value=0 -0.0586466 0.16553 -0.210202 -0.371336 -0.444004
internal_weight=0 119 48 71 47 44
internal_count=163 119 48 71 47 44
is_linear=0
shrinkage=0.01


Tree=13
num_leaves=7
num_cat=0
split_feature=3 1 1 3 0 1
split_gain=72648.9 50945.4 63714.2 52323.7 17741.6 3283.8
threshold=1.0000000180025095e-35 12.500000000000002 24.500000000000004 4.5000000000000009 8.5000000000000018 5.5000000000000009
decision_type=2 2 2 2 2 2
left_child=-1 4 3 -3 5 -2
right_child=1 2 -4 -5 -6 -7
leaf_value=0.40346998882293705 -0.26417438783428887 -0.98165168633603528 0.0026894524304763127 -0.32075136871337889 0.144216513974326 -0.091395061232826938
leaf_weight=20 22 23 23 25 28 22
leaf_count=20 22 23 23 25 28 22
internal_value=0 -0.239996 -0.430069 -0.637433 -0.052562 -0.177785
internal_weight=0 143 71 48 72 44
internal_count=163 143 71 48 72 44
is_linear=0
shrinkage=0.01


Tree=14
num_leaves=7
num_cat=0
split_feature=3 2 0 3 3 0
split_gain=71203.2 53023 50085.7 67459.6 38872.9 20530.6
threshold=1.0000000180025095e-35 2023.5000000000002 9.5000000000000018 4.5000000000000009 3.5000000000000004 5.5000000000000009
decision_type=2 2 2 2 2 2
left_child=-1 2 4 -4 -2 -6
right_child=1 -3 3 -5 5 -7
leaf_value=0.39943527841567994 0.36161422833152435 -0.62783762999943327 -0.78153796237447992 -0.0069819207624955614 0.092452592395600816 -0.32793810000786416
leaf_weight=20 23 28 23 22 21 26
leaf_count=20 23 28 23 22 21 26
internal_value=0 -0.237596 -0.14258 -0.402866 0.0247463 -0.140104
internal_weight=0 143 115 45 70 47
internal_count=163 143 115 45 70 47
is_linear=0
shrinkage=0.01


Tree=15
num_leaves=7
num_cat=0
split_feature=1 1 3 1 0 1
split_gain=91419.8 122316 69592.3 58105.6 26557 8296.87
threshold=10.500000000000002 15.500000000000002 3.5000000000000004 6.5000000000000009 7.5000000000000009 21.500000000000004
decision_type=2 2 2 2 2 2
left_child=3 -2 -3 4 -1 -4
right_child=1 2 5 -5 -6 -7
leaf_value=0.14106095081025904 0.78048622566720716 0.29040839806199076 -0.47927807617187496 -0.69390645662943529 -0.35029163057153873 -0.19123523235321047
leaf_weight=22 23 32 20 27 22 20
leaf_count=22 23 32 20 27 22 20
internal_value=0 0.145621 -0.0571833 -0.328712 -0.104615 -0.335257
internal_weight=0 95 72 71 44 40
internal_count=166 95 72 71 44 40
is_linear=0
shrinkage=0.01


Tree=16
num_leaves=6
num_cat=0
split_feature=1 1 1 0 0
split_gain=89600.6 120621 56949.3 38782.4 26028.5
threshold=10.500000000000002 17.500000000000004 6.5000000000000009 3.5000000000000004 7.5000000000000009
decision_type=2 2 2 2 2
left_child=2 -2 4 -3 -1
right_child=1 3 -4 -5 -6
leaf_value=0.13965035590258512 0.61070674296787808 -0.46211979378353468 -0.68696740327058015 0.065461751159868742 -0.34678873495622115
leaf_weight=22 35 22 27 38 22
leaf_count=22 35 22 27 38 22
internal_value=0 0.144165 -0.325425 -0.127985 -0.103569
internal_weight=0 95 71 60 44
internal_count=166 95 71 60 44
is_linear=0
shrinkage=0.01


Tree=17
num_leaves=6
num_cat=0
split_feature=1 1 1 1 1
split_gain=87817.5 118220 55816 31847.3 15236.9
threshold=10.500000000000002 17.500000000000004 6.5000000000000009 25.500000000000004 2.5000000000000004
decision_type=2 2 2 2 2
left_child=2 -2 4 -3 -1
right_child=1 3 -4 -5 -6
leaf_value=-0.30638440370559694 0.6045996541976929 -0.30200426227168037 -0.68009773466322165 0.17608471565625883 0.067342283080021548
leaf_weight=20 35 38 27 22 24
leaf_count=20 35 38 27 22 24
internal_value=0 0.142723 -0.322171 -0.126705 -0.102533
internal_weight=0 95 71 60 44
internal_count=166 95 71 60 44
is_linear=0
shrinkage=0.01


Tree=18
num_leaves=7
num_cat=0
split_feature=1 1 3 1 1 1
split_gain=86069.9 116366 68389.5 54705.3 14933.7 8405.54
threshold=10.500000000000002 15.500000000000002 3.5000000000000004 6.5000000000000009 2.5000000000000004 21.500000000000004
decision_type=2 2 2 2 2 2
left_child=3 -2 -3 4 -1 -4
right_child=1 2 5 -5 -6 -7
leaf_value=-0.30332058954238894 0.76052829452182935 0.2880601913481951 -0.47713587951660158 -0.67329675603795935 0.066668837020794555 -0.18721284008026126
leaf_weight=20 23 32 20 27 24 20
leaf_count=20 23 32 20 27 24 20
internal_value=0 0.141296 -0.0565146 -0.318949 -0.101508 -0.332174
internal_weight=0 95 72 71 44 40
internal_count=166 95 72 71 44 40
is_linear=0
shrinkage=0.01


Tree=19
num_leaves=6
num_cat=0
split_feature=0 3 0 0 3
split_gain=38872.5 36561.3 46742.7 26663.2 13214.5
threshold=2.5000000000000004 3.5000000000000004 5.5000000000000009 8.5000000000000018 5.5000000000000009
decision_type=2 2 2 2 2
left_child=-1 3 -3 -2 -4
right_child=1 2 4 -5 -6
leaf_value=-0.38760517251902615 0.03369160559028387 0.24509896926879884 -0.38588012875737371 0.48592952316457577 -0.071808808190482007
leaf_weight=29 32 25 37 22 21
leaf_count=29 32 25 37 22 21
internal_value=0 0.0154051 -0.116362 0.217937 -0.272165
internal_weight=0 137 83 54 58
internal_count=166 137 83 54 58
is_linear=0
shrinkage=0.01


Tree=20
num_leaves=5
num_cat=0
split_feature=1 0 1 1
split_gain=83175.9 218367 124384 60924.3
threshold=16.500000000000004 8.5000000000000018 6.5000000000000009 25.500000000000004
decision_type=2 2 2 2
left_child=1 2 -1 -2
right_child=3 -3 -4 -5
leaf_value=0.33464973905256817 -0.52757360201615555 0.84202477137247733 -0.55955853084155494 0.12135209521521693
leaf_weight=28 39 33 35 23
leaf_count=28 39 33 35 23
internal_value=0 0.183046 -0.162133 -0.286843
internal_weight=0 96 63 62
internal_count=158 96 63 62
is_linear=0
shrinkage=0.01


Tree=21
num_leaves=6
num_cat=0
split_feature=1 1 1 1 3
split_gain=81520.7 64829.4 77263.4 59711.9 58265.3
threshold=16.500000000000004 10.500000000000002 6.5000000000000009 25.500000000000004 3.5000000000000004
decision_type=2 2 2 2 2
left_child=1 2 4 -2 -1
right_child=3 -3 -4 -5 -6
leaf_value=0.63453853379596359 -0.52229789648300562 0.60761178330733223 -0.43711018482844033 0.12013858738152877 -0.077932193676630665
leaf_weight=22 39 26 24 23 24
leaf_count=22 39 26 24 23 24
internal_value=0 0.181216 0.0228404 -0.283975 0.262815
internal_weight=0 96 70 62 46
internal_count=158 96 70 62 46
is_linear=0
shrinkage=0.01


Tree=22
num_leaves=5
num_cat=0
split_feature=1 0 1 1
split_gain=79898.4 213375 121172 58523.7
threshold=16.500000000000004 8.5000000000000018 6.5000000000000009 25.500000000000004
decision_type=2 2 2 2
left_child=1 2 -1 -2
right_child=3 -3 -4 -5
leaf_value=0.32852022266813685 -0.51707490957700286 0.83080685615539551 -0.55406923270225528 0.11893718149351036
leaf_weight=28 39 33 35 23
leaf_count=28 39 33 35 23
internal_value=0 0.179404 -0.161807 -0.281135
internal_weight=0 96 63 62
internal_count=158 96 63 62
is_linear=0
shrinkage=0.01


Tree=23
num_leaves=6
num_cat=0
split_feature=1 1 1 1 3
split_gain=78308.5 63984.3 73883 57359.1 57149
threshold=16.500000000000004 10.500000000000002 6.5000000000000009 25.500000000000004 3.5000000000000004
decision_type=2 2 2 2 2
left_child=1 2 4 -2 -1
right_child=3 -3 -4 -5 -6
leaf_value=0.62308144239878116 -0.51190418267861393 0.60121725692198835 -0.42950649221738185 0.1177478365276171 -0.082530937989552827
leaf_weight=22 39 26 24 23 24
leaf_count=22 39 26 24 23 24
internal_value=0 0.17761 0.0202699 -0.278324 0.254936
internal_weight=0 96 70 62 46
internal_count=158 96 70 62 46
is_linear=0
shrinkage=0.01


Tree=24
num_leaves=5
num_cat=0
split_feature=1 0 1 1
split_gain=76750.1 208502 118060 56217.6
threshold=16.500000000000004 8.5000000000000018 6.5000000000000009 25.500000000000004
decision_type=2 2 2 2
left_child=1 2 -1 -2
right_child=3 -3 -4 -5
leaf_value=0.32253227340323581 -0.50678514346098291 0.81975494644858615 -0.54865087383134026 0.11657033422718877
leaf_weight=28 39 33 35 23
leaf_count=28 39 33 35 23
internal_value=0 0.175834 -0.161458 -0.27554
internal_weight=0 96 63 62
internal_count=158 96 63 62
is_linear=0
shrinkage=0.01


Tree=25
num_leaves=7
num_cat=0
split_feature=1 1 1 1 3 1
split_gain=99042.6 87590.3 70857.9 81339.6 101916 32553.1
threshold=10.500000000000002 6.5000000000000009 15.500000000000002 19.500000000000004 3.5000000000000004 2.5000000000000004
decision_type=2 2 2 2 2 2
left_child=1 5 -2 -4 -5 -1
right_child=2 -3 3 4 -6 -7
leaf_value=-0.23409979200363162 0.75014249706268321 -0.69313344081242878 -0.39033037310554869 -0.068010924412653995 0.8567823826182972 0.31753468370955923
leaf_weight=20 25 24 21 26 22 23
leaf_count=20 25 24 21 26 22 23
internal_value=0 -0.209163 0.294017 0.128753 0.355853 0.0609605
internal_weight=0 67 94 69 48 43
internal_count=161 67 94 69 48 43
is_linear=0
shrinkage=0.01


Tree=26
num_leaves=6
num_cat=0
split_feature=3 0 3 0 3
split_gain=31245.1 54138.7 52362.5 71971.2 4225.99
threshold=2.5000000000000004 3.5000000000000004 5.5000000000000009 7.5000000000000009 1.0000000180025095e-35
decision_type=2 2 2 2 2
left_child=4 -2 3 -3 -1
right_child=1 2 -4 -5 -6
leaf_value=0.40181578766215931 -0.36225820387563396 0.40426856313062753 0.52131968379020688 -0.31185878939098782 0.21178162956237792
leaf_weight=22 31 23 24 36 25
leaf_count=22 31 23 24 36 25
internal_value=0 -0.00567606 0.127505 -0.0326905 0.300734
internal_weight=0 114 83 59 47
internal_count=161 114 83 59 47
is_linear=0
shrinkage=0.01


Tree=27
num_leaves=7
num_cat=0
split_feature=1 1 1 1 0 1
split_gain=96980.5 85738.6 69603.7 79745.6 58830.3 31867.8
threshold=10.500000000000002 6.5000000000000009 15.500000000000002 19.500000000000004 6.5000000000000009 2.5000000000000004
decision_type=2 2 2 2 2 2
left_child=1 5 -2 -4 -5 -1
right_child=2 -3 3 4 -6 -7
leaf_value=-0.2324575538635254 0.74221242065429693 -0.68660016616185504 -0.38762487411499025 0.0011199164390563966 0.70130052407582599 0.31333985867707626
leaf_weight=20 25 24 21 24 24 23
leaf_count=20 25 24 21 24 24 23
internal_value=0 -0.207772 0.290141 0.126347 0.35121 0.0594806
internal_weight=0 67 94 69 48 43
internal_count=161 67 94 69 48 43
is_linear=0
shrinkage=0.01


Tree=28
num_leaves=7
num_cat=0
split_feature=1 1 1 1 3 1
split_gain=95050.6 84032.4 68218.6 78158.6 99799.9 31233.7
threshold=10.500000000000002 6.5000000000000009 15.500000000000002 19.500000000000004 3.5000000000000004 2.5000000000000004
decision_type=2 2 2 2 2 2
left_child=1 5 -2 -4 -5 -1
right_child=2 -3 3 4 -6 -7
leaf_value=-0.23013297462463378 0.73479031972885145 -0.67973418116569517 -0.38374862936281018 -0.071741217833298898 0.84339917269620035 0.3102065021577089
leaf_weight=20 25 24 21 26 22 23
leaf_count=20 25 24 21 26 22 23
internal_value=0 -0.205694 0.28724 0.125084 0.347698 0.0588858
internal_weight=0 67 94 69 48 43
internal_count=161 67 94 69 48 43
is_linear=0
shrinkage=0.01


Tree=29
num_leaves=7
num_cat=0
split_feature=1 1 1 1 3 1
split_gain=93159.1 82360.2 66861 76603.3 97813.9 30612.1
threshold=10.500000000000002 6.5000000000000009 15.500000000000002 19.500000000000004 3.5000000000000004 2.5000000000000004
decision_type=2 2 2 2 2 2
left_child=1 5 -2 -4 -5 -1
right_child=2 -3 3 4 -6 -7
leaf_value=-0.22783164405822753 0.72744241228103634 -0.67293683369954427 -0.37991114956992017 -0.071023848606989945 0.83496518221768468 0.30710443755854733
leaf_weight=20 25 24 21 26 22 23
leaf_count=20 25 24 21 26 22 23
internal_value=0 -0.203638 0.284367 0.123833 0.344221 0.058297
internal_weight=0 67 94 69 48 43
internal_count=161 67 94 69 48 43
is_linear=0
shrinkage=0.01


Tree=30
num_leaves=6
num_cat=0
split_feature=3 2 1 3 1
split_gain=82833.7 33034.9 57752 41832.1 31875.1
threshold=2.5000000000000004 2022.5000000000002 7.5000000000000009 4.5000000000000009 15.500000000000002
decision_type=2 2 2 2 2
left_child=-1 3 -3 -2 -4
right_child=1 2 4 -5 -6
leaf_value=0.35694958934417137 -0.08485201574862003 -0.42043374606541228 0.44361440022786464 -0.73162913846969602 -0.064358902712663021
leaf_weight=39 20 28 21 20 30
leaf_count=39 20 28 21 20 30
internal_value=0 -0.174089 -0.0555318 -0.408241 0.144807
internal_weight=0 119 79 40 51
internal_count=158 119 79 40 51
is_linear=0
shrinkage=0.01


Tree=31
num_leaves=6
num_cat=0
split_feature=3 0 2 0 0
split_gain=81185.3 37338.1 72446.7 29277.5 21705.1
threshold=2.5000000000000004 10.500000000000002 2022.5000000000002 2.5000000000000004 5.5000000000000009
decision_type=2 2 2 2 2
left_child=-1 2 -2 -4 -5
right_child=1 -3 3 4 -6
leaf_value=0.35338009238243101 -0.67660435339500169 0.18953985297161602 -0.38770356995718824 0.28014304023721948 -0.15429880847101626
leaf_weight=39 29 23 21 23 23
leaf_count=39 29 23 21 23 23
internal_value=0 -0.172348 -0.259051 -0.0783188 0.0629221
internal_weight=0 119 96 67 46
internal_count=158 119 96 67 46
is_linear=0
shrinkage=0.01


Tree=32
num_leaves=6
num_cat=0
split_feature=3 0 1 1 1
split_gain=79569.8 36595.1 66265.5 55698.1 9554.34
threshold=2.5000000000000004 10.500000000000002 7.5000000000000009 15.500000000000002 23.500000000000004
decision_type=2 2 2 2 2
left_child=-1 2 -2 -4 -5
right_child=1 -3 3 4 -6
leaf_value=0.34984629893914249 -0.64615048813819886 0.18764448746390966 0.30496879617373152 -0.44273375711657786 -0.14073945969343185
leaf_weight=39 30 23 24 22 20
leaf_count=39 30 23 24 22 20
internal_value=0 -0.170625 -0.25646 -0.0793285 -0.298927
internal_weight=0 119 96 66 42
internal_count=158 119 96 66 42
is_linear=0
shrinkage=0.01


Tree=33
num_leaves=6
num_cat=0
split_feature=3 2 1 3 1
split_gain=77986.3 31720.1 55819.6 41008.7 30535.4
threshold=2.5000000000000004 2022.5000000000002 7.5000000000000009 4.5000000000000009 15.500000000000002
decision_type=2 2 2 2 2
left_child=-1 3 -3 -2 -4
right_child=1 2 4 -5 -6
leaf_value=0.34634782792666025 -0.078172688305377963 -0.41148954485143935 0.43667454129173644 -0.71855333709716807 -0.060508888979752859
leaf_weight=39 20 28 21 20 30
leaf_count=39 20 28 21 20 30
internal_value=0 -0.168919 -0.0527444 -0.398363 0.144214
internal_weight=0 119 79 40 51
internal_count=158 119 79 40 51
is_linear=0
shrinkage=0.01


Tree=34
num_leaves=6
num_cat=0
split_feature=3 0 1 1 1
split_gain=76434.4 36044.2 64074.2 53867.8 9392.28
threshold=2.5000000000000004 10.500000000000002 7.5000000000000009 15.500000000000002 23.500000000000004
decision_type=2 2 2 2 2
left_child=-1 2 -2 -4 -5
right_child=1 -3 3 4 -6
leaf_value=0.34288434396951628 -0.63560909863313042 0.18833300051481827 0.29969226837158203 -0.43677991807460786 -0.13735789927840233
leaf_weight=39 30 23 24 22 20
leaf_count=39 30 23 24 22 20
internal_value=0 -0.16723 -0.252416 -0.0782379 -0.294198
internal_weight=0 119 96 66 42
internal_count=158 119 96 66 42
is_linear=0
shrinkage=0.01


Tree=35
num_leaves=5
num_cat=0
split_feature=1 1 1 1
split_gain=40450.2 58472.3 61820.4 113014
threshold=23.500000000000004 6.5000000000000009 10.500000000000002 15.500000000000002
decision_type=2 2 2 2
left_child=1 -1 -3 -4
right_child=-2 2 3 -5
leaf_value=0.14311873406171799 0.24319668497358049 -0.71689963093510389 0.37853103991150855 -0.48276610496716621
leaf_weight=40 28 27 25 39
leaf_count=40 28 27 25 39
internal_value=0 -0.175543 -0.315614 -0.146322
internal_weight=0 131 91 64
internal_count=159 131 91 64
is_linear=0
shrinkage=0.01


Tree=36
num_leaves=6
num_cat=0
split_feature=3 0 3 0 0
split_gain=49148.4 29322.5 34189.8 5526.49 2882.57
threshold=4.5000000000000009 2.5000000000000004 3.5000000000000004 7.5000000000000009 7.5000000000000009
decision_type=2 2 2 2 2
left_child=1 -1 4 -2 -3
right_child=3 2 -4 -5 -6
leaf_value=-0.28358694532643197 -0.42938783423105875 0.046679689912841875 0.41083519123218681 -0.23218209761160391 -0.1022284298676711
leaf_weight=23 30 26 27 27 26
leaf_count=23 30 26 27 27 26
internal_value=0 0.0306449 0.12213 -0.335975 -0.0277744
internal_weight=0 102 79 57 52
internal_count=159 102 79 57 52
is_linear=0
shrinkage=0.01


Tree=37
num_leaves=6
num_cat=0
split_feature=3 0 3 0 0
split_gain=48170.3 28739 33509.4 5416.51 2825.21
threshold=4.5000000000000009 2.5000000000000004 3.5000000000000004 7.5000000000000009 7.5000000000000009
decision_type=2 2 2 2 2
left_child=1 -1 4 -2 -3
right_child=3 2 -4 -5 -6
leaf_value=-0.28075105252473248 -0.42509394232432052 0.046212882330784438 0.40672683927747943 -0.22986024079499423 -0.10120614015139066
leaf_weight=23 30 26 27 27 26
leaf_count=23 30 26 27 27 26
internal_value=0 0.0303385 0.120909 -0.332615 -0.0274966
internal_weight=0 102 79 57 52
internal_count=159 102 79 57 52
is_linear=0
shrinkage=0.01


Tree=38
num_leaves=6
num_cat=0
split_feature=3 1 1 1 1
split_gain=47211.7 46740.1 47631.9 41096.8 22262
threshold=4.5000000000000009 20.500000000000004 6.5000000000000009 15.500000000000002 13.500000000000002
decision_type=2 2 2 2 2
left_child=1 2 -1 -2 -4
right_child=3 -3 4 -5 -6
leaf_value=0.22852783521016437 -0.10029924912886186 0.36966614756090893 -0.51121109922726948 -0.64414915720621746 -0.070814698704264378
leaf_weight=27 33 29 24 24 22
leaf_count=27 33 29 24 24 22
internal_value=0 0.0300351 -0.104887 -0.329289 -0.300587
internal_weight=0 102 73 57 46
internal_count=159 102 73 57 46
is_linear=0
shrinkage=0.01


Tree=39
num_leaves=6
num_cat=0
split_feature=3 1 1 1 1
split_gain=46272.2 45810 46684.1 40279 21819
threshold=4.5000000000000009 20.500000000000004 6.5000000000000009 15.500000000000002 13.500000000000002
decision_type=2 2 2 2 2
left_child=1 2 -1 -2 -4
right_child=3 -3 4 -5 -6
leaf_value=0.22624254937525148 -0.099296231414332539 0.36596947571326943 -0.5060989650090536 -0.63770768404006961 -0.070106563839045441
leaf_weight=27 33 29 24 24 22
leaf_count=27 33 29 24 24 22
internal_value=0 0.0297347 -0.103838 -0.325996 -0.297581
internal_weight=0 102 73 57 46
internal_count=159 102 73 57 46
is_linear=0
shrinkage=0.01


Tree=40
num_leaves=6
num_cat=0
split_feature=1 0 0 0 1
split_gain=97986.7 92671.9 54277 51174.3 22209.6
threshold=19.500000000000004 4.5000000000000009 8.5000000000000018 4.5000000000000009 8.5000000000000018
decision_type=2 2 2 2 2
left_child=2 -2 3 -1 -4
right_child=1 -3 4 -5 -6
leaf_value=0.016502058370038868 -0.0029717690604073661 0.87581501552036833 0.48538225317001343 -0.54090382929359171 0.024947130138223823
leaf_weight=40 21 28 20 28 22
leaf_count=40 21 28 20 28 22
internal_value=0 0.499192 -0.0384431 -0.213018 0.244202
internal_weight=0 49 110 68 42
internal_count=159 49 110 68 42
is_linear=0
shrinkage=0.01


Tree=41
num_leaves=6
num_cat=0
split_feature=1 0 0 0 1
split_gain=96036.8 90827.8 53196.9 50156 21767.6
threshold=19.500000000000004 4.5000000000000009 8.5000000000000018 4.5000000000000009 8.5000000000000018
decision_type=2 2 2 2 2
left_child=2 -2 3 -1 -4
right_child=1 -3 4 -5 -6
leaf_value=0.01633703858219087 -0.0029420634678431917 0.8670568697793144 0.48052841711044308 -0.53549477800726897 0.024697670177979903
leaf_weight=40 21 28 20 28 22
leaf_count=40 21 28 20 28 22
internal_value=0 0.4942 -0.0380587 -0.210888 0.24176
internal_weight=0 49 110 68 42
internal_count=159 49 110 68 42
is_linear=0
shrinkage=0.01


Tree=42
num_leaves=6
num_cat=0
split_feature=1 3 1 1 3
split_gain=94125.6 37248 63099 28867.1 14855.4
threshold=19.500000000000004 5.5000000000000009 6.5000000000000009 10.500000000000002 4.5000000000000009
decision_type=2 2 2 2 2
left_child=1 2 -1 -4 -2
right_child=4 -3 3 -5 -6
leaf_value=0.3811749475283755 0.63385550268765156 -0.36843443907224216 -0.46282310628890988 0.034602425827511718 0.27959208774566652
leaf_weight=36 29 26 20 28 20
leaf_count=36 29 26 20 28 20
internal_value=0 -0.0376781 0.0646989 -0.172658 0.489258
internal_weight=0 110 84 48 49
internal_count=159 110 84 48 49
is_linear=0
shrinkage=0.01


Tree=43
num_leaves=6
num_cat=0
split_feature=0 0 0 0 3
split_gain=89620.6 67825.8 35127 14165.5 300.005
threshold=7.5000000000000009 1.5000000000000002 3.5000000000000004 9.5000000000000018 4.5000000000000009
decision_type=2 2 2 2 2
left_child=1 -1 -3 -2 -5
right_child=3 2 -4 4 -6
leaf_value=0.42916825866699221 0.61123111270722885 -0.50550973044974468 -0.048246833142780117 0.32283411337779122 0.27265918818387119
leaf_weight=20 21 28 42 26 22
leaf_count=20 21 28 42 26 22
internal_value=0 -0.0844142 -0.231152 0.394609 0.299837
internal_weight=0 90 70 69 48
internal_count=159 90 70 69 48
is_linear=0
shrinkage=0.01


Tree=44
num_leaves=6
num_cat=0
split_feature=0 0 0 0 3
split_gain=87837.2 66476 34428 13883.6 294.035
threshold=7.5000000000000009 1.5000000000000002 3.5000000000000004 9.5000000000000018 4.5000000000000009
decision_type=2 2 2 2 2
left_child=1 -1 -3 -2 -5
right_child=3 2 -4 4 -6
leaf_value=0.42487657165527348 0.60511881328764416 -0.50045463587556571 -0.047764358293442499 0.31960581577741187 0.26993260210210623
leaf_weight=20 21 28 42 26 22
leaf_count=20 21 28 42 26 22
internal_value=0 -0.08357 -0.22884 0.390663 0.296839
internal_weight=0 90 70 69 48
internal_count=159 90 70 69 48
is_linear=0
shrinkage=0.01


Tree=45
num_leaves=7
num_cat=0
split_feature=1 3 1 2 3 1
split_gain=14424.2 57624 47413.5 40209 29097.5 1633.75
threshold=6.5000000000000009 3.5000000000000004 10.500000000000002 2022.5000000000002 2.5000000000000004 18.500000000000004
decision_type=2 2 2 2 2 2
left_child=1 -1 -2 -4 -5 -6
right_child=2 -3 3 4 5 -7
leaf_value=0.38607629574480512 -0.63128828222101385 -0.31236653751797144 -0.40063027584191524 -0.2655078727819703 0.12105675356728691 0.24579470481191362
leaf_weight=21 22 27 33 22 21 21
leaf_count=21 22 27 33 22 21 21
internal_value=0 -0.0067978 -0.212155 -0.117094 0.0291048 0.183426
internal_weight=0 48 119 97 64 42
internal_count=167 48 119 97 64 42
is_linear=0
shrinkage=0.01


Tree=46
num_leaves=6
num_cat=0
split_feature=0 3 0 3 2
split_gain=18268 63871.5 22535.5 4863.14 32663.2
threshold=4.5000000000000009 3.5000000000000004 6.5000000000000009 2.5000000000000004 2022.5000000000002
decision_type=2 2 2 2 2
left_child=1 -1 -2 -4 -5
right_child=2 -3 3 4 -6
leaf_value=0.33819612613746097 -0.50110647492110727 -0.30676135217442235 -0.27526839670927628 -0.36670042404761682 0.11047916799783707
leaf_weight=28 24 34 23 26 32
leaf_count=28 24 34 23 26 32
internal_value=0 -0.0154902 -0.231968 -0.152223 -0.103429
internal_weight=0 62 105 81 58
internal_count=167 62 105 81 58
is_linear=0
shrinkage=0.01


Tree=47
num_leaves=6
num_cat=0
split_feature=0 3 0 3 2
split_gain=17904.4 62600.5 22087.1 4766.36 32013.2
threshold=4.5000000000000009 3.5000000000000004 6.5000000000000009 2.5000000000000004 2022.5000000000002
decision_type=2 2 2 2 2
left_child=1 -1 -2 -4 -5
right_child=2 -3 3 4 -6
leaf_value=0.3348141678954874 -0.49609540565560262 -0.30369373517877912 -0.2725157113697218 -0.36303341865539551 0.10937438100576401
leaf_weight=28 24 34 23 26 32
leaf_count=28 24 34 23 26 32
internal_value=0 -0.0153353 -0.229648 -0.150701 -0.102395
internal_weight=0 62 105 81 58
internal_count=167 62 105 81 58
is_linear=0
shrinkage=0.01


Tree=48
num_leaves=6
num_cat=0
split_feature=0 3 1 1 1
split_gain=17548.1 61354.7 35135.7 70854.5 47853.5
threshold=4.5000000000000009 3.5000000000000004 20.500000000000004 12.500000000000002 4.5000000000000009
decision_type=2 2 2 2 2
left_child=1 -1 3 4 -2
right_child=2 -3 -4 -5 -6
leaf_value=0.33146602781755585 -0.46864077257839115 -0.30065677278182085 0.10870832681655884 -0.73383634482111249 0.14118079031667402
leaf_weight=28 22 34 24 28 31
leaf_count=28 22 34 24 28 31
internal_value=0 -0.015182 -0.227352 -0.326925 -0.111953
internal_weight=0 62 105 81 53
internal_count=167 62 105 81 53
is_linear=0
shrinkage=0.01


Tree=49
num_leaves=7
num_cat=0
split_feature=1 3 1 2 3 1
split_gain=14105.5 55576.3 46484.5 38562.7 29206.7 1508.29
threshold=6.5000000000000009 3.5000000000000004 10.500000000000002 2022.5000000000002 2.5000000000000004 18.500000000000004
decision_type=2 2 2 2 2 2
left_child=1 -1 -2 -4 -5 -6
right_child=2 -3 3 4 5 -7
leaf_value=0.38344075095085872 -0.62047193527221678 -0.30247976338421856 -0.38901125958471588 -0.26333078367804941 0.12651821250007267 0.24637072756176903
leaf_weight=21 22 27 33 22 21 21
leaf_count=21 22 27 33 22 21 21
internal_value=0 -0.00238954 -0.205465 -0.11134 0.0318342 0.186444
internal_weight=0 48 119 97 64 42
internal_count=167 48 119 97 64 42
is_linear=0
shrinkage=0.01


Tree=50
num_leaves=6
num_cat=0
split_feature=1 0 2 1 2
split_gain=105786 60840.5 68126.6 38282.4 5648.12
threshold=23.500000000000004 5.5000000000000009 2022.5000000000002 6.5000000000000009 2023.5000000000002
decision_type=2 2 2 2 2
left_child=1 3 -3 -1 -5
right_child=-2 2 -4 4 -6
leaf_value=0.342922348478301 0.428730792076357 -0.093188983412349935 -0.70934876592535712 -0.057978111302310772 -0.28725766885848275
leaf_weight=22 31 34 38 22 21
leaf_count=22 31 34 38 22 21
internal_value=0 -0.218156 -0.418384 0.00363634 -0.169952
internal_weight=0 137 72 65 43
internal_count=168 137 72 65 43
is_linear=0
shrinkage=0.01


Tree=51
num_leaves=6
num_cat=0
split_feature=1 3 1 1 1
split_gain=103681 127705 51924 45501.9 96408.1
threshold=23.500000000000004 1.0000000180025095e-35 15.500000000000002 10.500000000000002 6.5000000000000009
decision_type=2 2 2 2 2
left_child=1 -1 3 4 -3
right_child=-2 2 -4 -5 -6
leaf_value=0.5224775066375732 0.42444350273378434 -0.053071285222585383 -0.66465632881437031 0.18444684860381214 -0.89347963787260509
leaf_weight=20 31 39 35 22 21
leaf_count=20 31 39 35 22 21
internal_value=0 -0.215974 -0.342205 -0.204573 -0.347214
internal_weight=0 137 117 82 60
internal_count=168 137 117 82 60
is_linear=0
shrinkage=0.01


Tree=52
num_leaves=7
num_cat=0
split_feature=1 3 0 1 3 3
split_gain=101618 125164 55054.3 47058 41341.2 12978.5
threshold=23.500000000000004 1.0000000180025095e-35 5.5000000000000009 6.5000000000000009 4.5000000000000009 4.5000000000000009
decision_type=2 2 2 2 2 2
left_child=1 -1 4 -4 -3 -5
right_child=-2 2 3 5 -6 -7
leaf_value=0.5172527408599854 0.42019907082280805 -0.31783734635873273 -0.14816710880824499 -0.89541861729188399 0.2583417730331421 -0.54786177726019003
leaf_weight=20 31 33 21 22 20 21
leaf_count=20 31 33 21 22 20 21
internal_value=0 -0.213814 -0.338783 -0.536185 -0.100411 -0.725682
internal_weight=0 137 117 64 53 43
internal_count=168 137 117 64 53 43
is_linear=0
shrinkage=0.01


Tree=53
num_leaves=7
num_cat=0
split_feature=3 0 3 0 0 0
split_gain=45232.8 36158 35786.3 36787.2 53716.7 42265.9
threshold=2.5000000000000004 4.5000000000000009 3.5000000000000004 6.5000000000000009 9.5000000000000018 2.5000000000000004
decision_type=2 2 2 2 2 2
left_child=1 -1 -2 5 -5 -4
right_child=2 -3 3 4 -6 -7
leaf_value=0.48833514225482944 -0.58577980633080007 -0.068374716894967213 -0.25924180098942345 -0.71322773265838624 -0.052585733532905576 0.3389273311473705
leaf_weight=20 20 28 21 20 32 27
leaf_count=20 20 28 21 20 32 27
internal_value=0 0.163588 -0.199633 -0.122403 -0.306679 0.0772283
internal_weight=0 48 120 100 52 48
internal_count=168 48 120 100 52 48
is_linear=0
shrinkage=0.01


Tree=54
num_leaves=6
num_cat=0
split_feature=1 0 2 1 2
split_gain=99726.1 57352.6 65399.2 37083.1 5375
threshold=23.500000000000004 5.5000000000000009 2022.5000000000002 6.5000000000000009 2023.5000000000002
decision_type=2 2 2 2 2
left_child=1 3 -3 -1 -5
right_child=-2 2 -4 4 -6
leaf_value=0.33847632072188638 0.41729081146178709 -0.086578649896032672 -0.69027879865545971 -0.057067476297644054 -0.28073472522553944
leaf_weight=22 31 34 38 22 21
leaf_count=22 31 34 38 22 21
internal_value=0 -0.210793 -0.405198 0.00454716 -0.1663
internal_weight=0 137 72 65 43
internal_count=168 137 72 65 43
is_linear=0
shrinkage=0.01


Tree=55
num_leaves=7
num_cat=0
split_feature=1 1 0 1 0 1
split_gain=53932.5 48149.7 118016 39741.7 25624.8 27960.6
threshold=10.500000000000002 6.5000000000000009 7.5000000000000009 15.500000000000002 8.5000000000000018 22.500000000000004
decision_type=2 2 2 2 2 2
left_child=1 2 -1 -2 5 -5
right_child=3 -3 -4 4 -6 -7
leaf_value=0.5213824668297401 0.60414258390017173 -0.47594543304443365 -0.47377842946486043 0.54278923892974851 -0.13956799586613974 0.036523032784461978
leaf_weight=26 23 25 22 20 24 24
leaf_count=26 23 25 22 20 24 24
internal_value=0 -0.12008 0.0652671 0.244813 0.123275 0.266644
internal_weight=0 73 48 91 68 44
internal_count=164 73 48 91 68 44
is_linear=0
shrinkage=0.01


Tree=56
num_leaves=6
num_cat=0
split_feature=1 1 3 1 1
split_gain=52859.3 47191.6 94883.4 38950.8 18532.3
threshold=10.500000000000002 6.5000000000000009 3.5000000000000004 15.500000000000002 23.500000000000004
decision_type=2 2 2 2 2
left_child=1 2 -1 -2 -5
right_child=3 -3 -4 4 -6
leaf_value=0.54795105500654739 0.59810113446867985 -0.47118598442077636 -0.34436280048810519 -0.01607853937149048 0.31935788103512358
leaf_weight=22 23 25 26 40 28
leaf_count=22 23 25 26 40 28
internal_value=0 -0.118879 0.0646144 0.242365 0.122042
internal_weight=0 73 48 91 68
internal_count=164 73 48 91 68
is_linear=0
shrinkage=0.01


Tree=57
num_leaves=7
num_cat=0
split_feature=1 1 0 1 0 1
split_gain=51807.4 46252.5 115477 38175.7 25064.1 27710.7
threshold=10.500000000000002 6.5000000000000009 7.5000000000000009 15.500000000000002 8.5000000000000018 22.500000000000004
decision_type=2 2 2 2 2 2
left_child=1 2 -1 -2 5 -5
right_child=3 -3 -4 4 -6 -7
leaf_value=0.51515069668109603 0.59212012928465141 -0.46647415046691898 -0.46924737236716529 0.53752216339111325 -0.13912962516148886 0.033523276448249817
leaf_weight=26 23 25 22 20 24 24
leaf_count=26 23 25 22 20 24 24
internal_value=0 -0.11769 0.0639682 0.239941 0.120822 0.262614
internal_weight=0 73 48 91 68 44
internal_count=164 73 48 91 68 44
is_linear=0
shrinkage=0.01


Tree=58
num_leaves=7
num_cat=0
split_feature=1 1 0 1 0 1
split_gain=50776.4 45332 113179 37416 24565.3 27159.3
threshold=10.500000000000002 6.5000000000000009 7.5000000000000009 15.500000000000002 8.5000000000000018 22.500000000000004
decision_type=2 2 2 2 2 2
left_child=1 2 -1 -2 5 -5
right_child=3 -3 -4 4 -6 -7
leaf_value=0.50999919084402234 0.58619896494823953 -0.46180938262939458 -0.46455488833514125 0.53214692974090572 -0.13773834149042766 0.033188042640686033
leaf_weight=26 23 25 22 20 24 24
leaf_count=26 23 25 22 20 24 24
internal_value=0 -0.116513 0.0633286 0.237542 0.119614 0.259988
internal_weight=0 73 48 91 68 44
internal_count=164 73 48 91 68 44
is_linear=0
shrinkage=0.01


Tree=59
num_leaves=7
num_cat=0
split_feature=1 1 0 1 0 0
split_gain=49766 44429.9 110927 36671.4 24076.5 26853.7
threshold=10.500000000000002 6.5000000000000009 7.5000000000000009 15.500000000000002 8.5000000000000018 3.5000000000000004
decision_type=2 2 2 2 2 2
left_child=1 2 -1 -2 5 -5
right_child=3 -3 -4 4 -6 -7
leaf_value=0.50489919002239514 0.58033698009408041 -0.45719131317138678 -0.45990935303948144 0.010342827493494206 -0.13636096556981406 0.50443250482732604
leaf_weight=26 23 25 22 22 24 22
leaf_count=26 23 25 22 22 24 22
internal_value=0 -0.115348 0.0626953 0.235166 0.118418 0.257388
internal_weight=0 73 48 91 68 44
internal_count=164 73 48 91 68 44
is_linear=0
shrinkage=0.01


Tree=60
num_leaves=6
num_cat=0
split_feature=0 0 1 1 1
split_gain=83770.1 77395 75203.9 40791.2 26537.7
threshold=9.5000000000000018 7.5000000000000009 6.5000000000000009 14.500000000000002 13.500000000000002
decision_type=2 2 2 2 2
left_child=1 2 -1 -4 -2
right_child=4 -3 3 -5 -6
leaf_value=0.53585841814676916 0.18595478404651988 -0.61743892964862634 -0.42597115443303035 0.085382121954208773 0.66678717594593762
leaf_weight=24 22 21 26 39 24
leaf_count=24 22 21 26 39 24
internal_value=0 -0.0713724 0.0574748 -0.119159 0.436824
internal_weight=0 110 89 65 46
internal_count=156 110 89 65 46
is_linear=0
shrinkage=0.01


Tree=61
num_leaves=6
num_cat=0
split_feature=1 1 1 1 1
split_gain=67097 158849 63045.9 53003.9 82578.9
threshold=10.500000000000002 6.5000000000000009 3.5000000000000004 16.500000000000004 20.500000000000004
decision_type=2 2 2 2 2
left_child=1 2 -1 -2 -5
right_child=3 -3 -4 4 -6
leaf_value=-0.13914778750875723 0.59413749825569895 -0.77222299649165227 0.62853817558288572 -0.41700814451490131 0.37619567666734965
leaf_weight=23 31 26 20 21 35
leaf_count=23 31 26 20 21 35
internal_value=0 -0.15518 0.217915 0.26239 0.0787442
internal_weight=0 69 43 87 56
internal_count=156 69 43 87 56
is_linear=0
shrinkage=0.01


Tree=62
num_leaves=6
num_cat=0
split_feature=1 1 1 1 1
split_gain=65761.8 155688 61791.2 51949.1 80935.6
threshold=10.500000000000002 6.5000000000000009 3.5000000000000004 16.500000000000004 20.500000000000004
decision_type=2 2 2 2 2
left_child=1 2 -1 -2 -5
right_child=3 -3 -4 4 -6
leaf_value=-0.13775631904602051 0.58819608949845836 -0.7645007426922138 0.62225278067588807 -0.41283806971141268 0.37243374170575827
leaf_weight=23 31 26 20 21 35
leaf_count=23 31 26 20 21 35
internal_value=0 -0.153628 0.215736 0.259766 0.0779568
internal_weight=0 69 43 87 56
internal_count=156 69 43 87 56
is_linear=0
shrinkage=0.01


Tree=63
num_leaves=7
num_cat=0
split_feature=0 0 1 1 1 0
split_gain=81773.8 76094.5 72916 38511 25811.2 4068.98
threshold=9.5000000000000018 7.5000000000000009 6.5000000000000009 19.500000000000004 13.500000000000002 3.5000000000000004
decision_type=2 2 2 2 2 2
left_child=1 2 -1 5 -2 -4
right_child=4 -3 3 -5 -6 -7
leaf_value=0.52690345446268716 0.1827861647172408 -0.61336628187270392 -0.19713897878473458 0.22222427888350055 0.65699105077112718 -0.391744841166905
leaf_weight=24 22 21 22 22 24 21
leaf_count=24 22 21 22 22 24 21
internal_value=0 -0.071907 0.055853 -0.118073 0.430197 -0.292179
internal_weight=0 110 89 65 46 43
internal_count=156 110 89 65 46 43
is_linear=0
shrinkage=0.01


Tree=64
num_leaves=6
num_cat=0
split_feature=0 0 1 1 1
split_gain=80146.5 74580.3 71465 37927.1 25297.6
threshold=9.5000000000000018 7.5000000000000009 6.5000000000000009 14.500000000000002 13.500000000000002
decision_type=2 2 2 2 2
left_child=1 2 -1 -4 -2
right_child=4 -3 3 -5 -6
leaf_value=0.52163444240887968 0.18095829183405099 -0.6072325997125535 -0.41273706106039193 0.080337090553381507 0.65042115221420926
leaf_weight=24 22 21 26 39 24
leaf_count=24 22 21 26 39 24
internal_value=0 -0.071188 0.0552945 -0.116893 0.425895
internal_weight=0 110 89 65 46
internal_count=156 110 89 65 46
is_linear=0
shrinkage=0.01


Tree=65
num_leaves=6
num_cat=0
split_feature=1 3 1 1 1
split_gain=116980 38184.8 76408 70444 3225.72
threshold=6.5000000000000009 5.5000000000000009 20.500000000000004 14.500000000000002 3.5000000000000004
decision_type=2 2 2 2 2
left_child=4 2 3 -2 -1
right_child=1 -3 -4 -5 -6
leaf_value=0.41295834411274307 -0.15054069345647639 0.22949235954284666 0.19771055205114954 -0.89142799627213254 0.58420293981378724
leaf_weight=22 33 25 29 21 22
leaf_count=22 33 25 29 21 22
internal_value=0 -0.11312 -0.216316 -0.438664 0.498581
internal_weight=0 108 83 54 44
internal_count=152 108 83 54 44
is_linear=0
shrinkage=0.01


Tree=66
num_leaves=5
num_cat=0
split_feature=0 1 0 3
split_gain=145719 105750 121540 46731.7
threshold=2.5000000000000004 6.5000000000000009 7.5000000000000009 4.5000000000000009
decision_type=2 2 2 2
left_child=-1 -2 -3 -4
right_child=1 2 3 -5
leaf_value=-0.57434893427223999 0.66068486007484228 -0.42171366751194 0.63404203570806061 0.022116913000742592
leaf_weight=29 37 36 26 24
leaf_count=29 37 36 26 24
internal_value=0 0.213655 0.021328 0.340318
internal_weight=0 123 86 50
internal_count=152 123 86 50
is_linear=0
shrinkage=0.01


Tree=67
num_leaves=6
num_cat=0
split_feature=1 3 1 1 1
split_gain=112525 37719.2 74942.4 69204.9 3182.5
threshold=6.5000000000000009 5.5000000000000009 20.500000000000004 14.500000000000002 3.5000000000000004
decision_type=2 2 2 2 2
left_child=4 2 3 -2 -1
right_child=1 -3 -4 -5 -6
leaf_value=0.40390606576746158 -0.14818067319465406 0.22952837600708009 0.19648301667180554 -0.88252316088903515 0.57399957180023198
leaf_weight=22 33 25 29 21 22
leaf_count=22 33 25 29 21 22
internal_value=0 -0.110988 -0.213554 -0.433758 0.488953
internal_weight=0 108 83 54 44
internal_count=152 108 83 54 44
is_linear=0
shrinkage=0.01


Tree=68
num_leaves=5
num_cat=0
split_feature=0 1 0 3
split_gain=142896 101651 119041 46243.9
threshold=2.5000000000000004 6.5000000000000009 7.5000000000000009 4.5000000000000009
decision_type=2 2 2 2
left_child=-1 -2 -3 -4
right_child=1 2 3 -5
leaf_value=-0.56940296452620931 0.64921147526921463 -0.41609304991033341 0.63024983025514159 0.021526515483856201
leaf_weight=29 37 36 26 24
leaf_count=29 37 36 26 24
internal_value=0 0.210932 0.0223696 0.338063
internal_weight=0 123 86 50
internal_count=152 123 86 50
is_linear=0
shrinkage=0.01


Tree=69
num_leaves=6
num_cat=0
split_feature=1 3 1 1 1
split_gain=108240 37259.5 73505.3 67988.2 3139.72
threshold=6.5000000000000009 5.5000000000000009 20.500000000000004 14.500000000000002 3.5000000000000004
decision_type=2 2 2 2 2
left_child=4 2 3 -2 -1
right_child=1 -3 -4 -5 -6
leaf_value=0.39503663626584146 -0.14586207707722984 0.22953877601623535 0.19525113056445942 -0.87372082046100075 0.56398314302617858
leaf_weight=22 33 25 29 21 22
leaf_count=22 33 25 29 21 22
internal_value=0 -0.108897 -0.210835 -0.428918 0.47951
internal_weight=0 108 83 54 44
internal_count=152 108 83 54 44
is_linear=0
shrinkage=0.01


Tree=70
num_leaves=5
num_cat=0
split_feature=1 0 3 1
split_gain=58164.3 92673.2 54673.6 39756.4
threshold=10.500000000000002 7.5000000000000009 4.5000000000000009 22.500000000000004
decision_type=2 2 2 2
left_child=1 -1 3 -2
right_child=2 -3 -4 -5
leaf_value=0.18664874339103699 0.26913257906994514 -0.58947980613708495 -0.019845353262765066 0.84099676227569575
leaf_weight=40 31 25 35 20
leaf_count=40 31 25 35 20
internal_value=0 -0.111862 0.284517 0.493393
internal_weight=0 65 86 51
internal_count=151 65 86 51
is_linear=0
shrinkage=0.01


Tree=71
num_leaves=5
num_cat=0
split_feature=1 0 1 1
split_gain=57006.8 90829 52730.5 31081
threshold=10.500000000000002 7.5000000000000009 16.500000000000004 22.500000000000004
decision_type=2 2 2 2
left_child=1 -1 -2 -4
right_child=2 -3 3 -5
leaf_value=0.18478226494789124 0.70400995108214293 -0.5835850030899048 -0.10560573199699665 0.33708914525168282
leaf_weight=40 22 25 29 35
leaf_count=40 22 25 29 35
internal_value=0 -0.110744 0.281672 0.136493
internal_weight=0 65 86 64
internal_count=151 65 86 64
is_linear=0
shrinkage=0.01


Tree=72
num_leaves=5
num_cat=0
split_feature=1 0 3 1
split_gain=55872.4 89021.5 53459 38895.2
threshold=10.500000000000002 7.5000000000000009 4.5000000000000009 22.500000000000004
decision_type=2 2 2 2
left_child=1 -1 3 -2
right_child=2 -3 -4 -5
leaf_value=0.18293443727493286 0.26357980351294241 -0.57774915733337406 -0.02210735103062221 0.82921594285964972
leaf_weight=40 31 25 35 20
leaf_count=40 31 25 35 20
internal_value=0 -0.109636 0.278855 0.485398
internal_weight=0 65 86 51
internal_count=151 65 86 51
is_linear=0
shrinkage=0.01


Tree=73
num_leaves=5
num_cat=0
split_feature=1 0 3 1
split_gain=54760.5 87249.9 52395.2 38121.2
threshold=10.500000000000002 7.5000000000000009 4.5000000000000009 22.500000000000004
decision_type=2 2 2 2
left_child=1 -1 3 -2
right_child=2 -3 -4 -5
leaf_value=0.18110509228706359 0.26094399941544377 -0.57197166576385505 -0.021886272157941544 0.82092379045486452
leaf_weight=40 31 25 35 20
leaf_count=40 31 25 35 20
internal_value=0 -0.10854 0.276067 0.480544
internal_weight=0 65 86 51
internal_count=151 65 86 51
is_linear=0
shrinkage=0.01


Tree=74
num_leaves=5
num_cat=0
split_feature=1 0 1 1
split_gain=53670.8 85513.7 52204.8 29559.6
threshold=10.500000000000002 7.5000000000000009 16.500000000000004 22.500000000000004
decision_type=2 2 2 2
left_child=1 -1 -2 -4
right_child=2 -3 3 -5
leaf_value=0.17929403281211856 0.6935335646976124 -0.56625195293426511 -0.10724636733531952 0.32447743225097653
leaf_weight=40 22 25 29 35
leaf_count=40 22 25 29 35
internal_value=0 -0.107454 0.273306 0.128853
internal_weight=0 65 86 64
internal_count=151 65 86 64
is_linear=0
shrinkage=0.01


Tree=75
num_leaves=6
num_cat=0
split_feature=3 0 1 1 3
split_gain=46990.5 75246.1 56313.1 43604.2 57888.8
threshold=1.0000000180025095e-35 2.5000000000000004 20.500000000000004 8.5000000000000018 4.5000000000000009
decision_type=2 2 2 2 2
left_child=-1 -2 3 -3 -5
right_child=1 2 -4 4 -6
leaf_value=0.30071814246799639 -0.66112254637259027 0.043869254840047736 0.30633350799823628 -0.75168242951234177 -0.032749981653122678
leaf_weight=23 27 38 29 24 21
leaf_count=23 27 38 29 24 21
internal_value=0 -0.18725 -0.0730127 -0.205555 -0.416181
internal_weight=0 139 112 83 45
internal_count=162 139 112 83 45
is_linear=0
shrinkage=0.01


Tree=76
num_leaves=7
num_cat=0
split_feature=3 2 1 3 1 1
split_gain=46055.4 45040.6 28298.1 55772.3 107828 39239
threshold=1.0000000180025095e-35 2023.5000000000002 4.5000000000000009 5.5000000000000009 20.500000000000004 12.500000000000002
decision_type=2 2 2 2 2 2
left_child=-1 2 -2 4 5 -4
right_child=1 -3 3 -5 -6 -7
leaf_value=0.29771096934442937 -0.40489586498426355 -0.53596122840355187 -0.16789964948381697 0.39973518590132395 0.39801949761130595 -0.78680778330564494
leaf_weight=23 23 29 21 24 22 20
leaf_count=23 23 29 21 24 22 20
internal_value=0 -0.185377 -0.0929507 -0.0104825 -0.166756 -0.469806
internal_weight=0 139 110 87 63 41
internal_count=162 139 110 87 63 41
is_linear=0
shrinkage=0.01


Tree=77
num_leaves=6
num_cat=0
split_feature=3 0 1 1 3
split_gain=45138.9 73538.6 54004 42672.4 55892.6
threshold=1.0000000180025095e-35 2.5000000000000004 20.500000000000004 8.5000000000000018 4.5000000000000009
decision_type=2 2 2 2 2
left_child=-1 -2 3 -3 -5
right_child=1 2 -4 4 -6
leaf_value=0.29473383198613706 -0.65198881855717417 0.046358578456075571 0.30089731249315987 -0.73841625099380803 -0.031987692515055337
leaf_weight=23 27 38 29 24 21
leaf_count=23 27 38 29 24 21
internal_value=0 -0.183524 -0.07059 -0.200387 -0.40875
internal_weight=0 139 112 83 45
internal_count=162 139 112 83 45
is_linear=0
shrinkage=0.01


Tree=78
num_leaves=7
num_cat=0
split_feature=3 0 0 3 3 0
split_gain=44240.6 72075.2 23872.1 168226 104515 89655.5
threshold=1.0000000180025095e-35 2.5000000000000004 9.5000000000000018 4.5000000000000009 4.5000000000000009 5.5000000000000009
decision_type=2 2 2 2 2 2
left_child=-1 -2 3 5 -4 -3
right_child=1 2 4 -5 -6 -7
leaf_value=0.29178648243779726 -0.64546891742282442 -0.016490252174082256 -0.7547265861147926 -0.54473205467750285 0.25535387420654299 0.90755636669340589
leaf_weight=23 27 21 21 29 20 21
leaf_count=23 27 21 21 29 20 21
internal_value=0 -0.181688 -0.0698841 0.0410586 -0.262004 0.445533
internal_weight=0 139 112 71 41 42
internal_count=162 139 112 71 41 42
is_linear=0
shrinkage=0.01


Tree=79
num_leaves=6
num_cat=0
split_feature=3 0 1 0 3
split_gain=43360.3 70640.9 52765.4 41853.3 182416
threshold=1.0000000180025095e-35 2.5000000000000004 20.500000000000004 9.5000000000000018 4.5000000000000009
decision_type=2 2 2 2 2
left_child=-1 -2 3 4 -3
right_child=1 2 -4 -5 -6
leaf_value=0.28886866030485736 -0.63901423798667067 0.48692856778701149 0.29801713779054839 -0.50390965823469491 -0.68273860692977906
leaf_weight=23 27 30 29 29 24
leaf_count=23 27 30 29 29 24
internal_value=0 -0.179871 -0.0691853 -0.197485 -0.0329235
internal_weight=0 139 112 83 54
internal_count=162 139 112 83 54
is_linear=0
shrinkage=0.01


Tree=80
num_leaves=6
num_cat=0
split_feature=1 0 0 0 0
split_gain=33684.1 187581 120756 3490.68 1202.22
threshold=13.500000000000002 5.5000000000000009 7.5000000000000009 9.5000000000000018 3.5000000000000004
decision_type=2 2 2 2 2
left_child=1 -1 4 -3 -2
right_child=2 3 -4 -5 -6
leaf_value=0.47491238998644281 -0.17708539181030714 -0.61567131428491506 0.66049530759002228 -0.43734803738801376 -0.073959165334701538
leaf_weight=33 26 21 33 23 20
leaf_count=33 26 21 33 23 20
internal_value=0 -0.0950129 0.198898 -0.522457 -0.132248
internal_weight=0 77 79 44 46
internal_count=156 77 79 44 46
is_linear=0
shrinkage=0.01


Tree=81
num_leaves=6
num_cat=0
split_feature=1 1 3 3 1
split_gain=33013.8 52576.1 44659.9 40136.9 21812.5
threshold=13.500000000000002 17.500000000000004 3.5000000000000004 3.5000000000000004 8.5000000000000018
decision_type=2 2 2 2 2
left_child=3 -2 -3 -1 -5
right_child=1 2 -4 4 -6
leaf_value=0.19966715812683106 0.58744065575301652 -0.29736141175031661 0.27722293915287144 -0.083523767347689029 -0.51323994681948704
leaf_weight=29 24 24 31 27 21
leaf_count=29 24 24 31 27 21
internal_value=0 0.196909 0.0264952 -0.0940628 -0.271525
internal_weight=0 79 55 77 48
internal_count=156 79 55 77 48
is_linear=0
shrinkage=0.01


Tree=82
num_leaves=6
num_cat=0
split_feature=1 0 0 0 0
split_gain=32356.8 183816 118352 3451.13 1165.19
threshold=13.500000000000002 5.5000000000000009 7.5000000000000009 9.5000000000000018 3.5000000000000004
decision_type=2 2 2 2 2
left_child=1 -1 4 -3 -2
right_child=2 3 -4 -5 -6
leaf_value=0.47105486262928359 -0.17703469794530136 -0.60893963870548062 0.65191926717758175 -0.43162966686746351 -0.075508933067321773
leaf_weight=33 26 21 33 23 20
leaf_count=33 26 21 33 23 20
internal_value=0 -0.0931221 0.19494 -0.516255 -0.132893
internal_weight=0 77 79 44 46
internal_count=156 77 79 44 46
is_linear=0
shrinkage=0.01


Tree=83
num_leaves=6
num_cat=0
split_feature=1 0 0 0 0
split_gain=31712.9 180158 115997 3382.45 1142.01
threshold=13.500000000000002 5.5000000000000009 7.5000000000000009 9.5000000000000018 3.5000000000000004
decision_type=2 2 2 2 2
left_child=1 -1 4 -3 -2
right_child=2 3 -4 -5 -6
leaf_value=0.46634431665593928 -0.17526435393553513 -0.60285025948569892 0.64540008801402471 -0.42731334852135705 -0.074753833293914801
leaf_weight=33 26 21 33 23 20
leaf_count=33 26 21 33 23 20
internal_value=0 -0.0921909 0.192991 -0.511092 -0.131564
internal_weight=0 77 79 44 46
internal_count=156 77 79 44 46
is_linear=0
shrinkage=0.01


Tree=84
num_leaves=6
num_cat=0
split_feature=1 1 3 3 1
split_gain=31081.8 51491.3 43781.9 39245.5 21467.4
threshold=13.500000000000002 17.500000000000004 3.5000000000000004 3.5000000000000004 8.5000000000000018
decision_type=2 2 2 2 2
left_child=3 -2 -3 -1 -5
right_child=1 2 -4 4 -6
leaf_value=0.19918074081683979 0.57754238982995354 -0.29824330374598501 0.27066487527662708 -0.08024134618264657 -0.5065446567535401
leaf_weight=29 24 24 31 27 21
leaf_count=29 24 24 31 27 21
internal_value=0 0.191061 0.022414 -0.091269 -0.266749
internal_weight=0 79 55 77 48
internal_count=156 79 55 77 48
is_linear=0
shrinkage=0.01


Tree=85
num_leaves=5
num_cat=0
split_feature=1 1 1 1
split_gain=95160.8 74556.8 133668 106693
threshold=23.500000000000004 17.500000000000004 10.500000000000002 6.5000000000000009
decision_type=2 2 2 2
left_child=1 2 3 -1
right_child=-2 -3 -4 -5
leaf_value=0.27107308887853854 0.73160422978577788 -0.33189305507775507 0.71579986453056332 -0.54781917131864111
leaf_weight=41 27 33 35 26
leaf_count=41 27 33 35 26
internal_value=0 0.0812683 0.214938 -0.046706
internal_weight=0 135 102 67
internal_count=162 135 102 67
is_linear=0
shrinkage=0.01


Tree=86
num_leaves=6
num_cat=0
split_feature=0 0 3 0 3
split_gain=122124 31896.9 36532.8 24910.8 8359.57
threshold=7.5000000000000009 2.5000000000000004 4.5000000000000009 9.5000000000000018 4.5000000000000009
decision_type=2 2 2 2 2
left_child=1 -1 -3 -2 -5
right_child=3 2 -4 4 -6
leaf_value=-0.31292962843371974 0.80080062627792359 0.2583231101036072 -0.25674765405200778 0.26860307284763879 0.52909034035422586
leaf_weight=31 20 40 21 28 22
leaf_count=31 20 40 21 28 22
internal_value=0 -0.0517347 0.0810037 0.502527 0.383217
internal_weight=0 92 61 70 50
internal_count=162 92 61 70 50
is_linear=0
shrinkage=0.01


Tree=87
num_leaves=6
num_cat=0
split_feature=0 1 0 1 2
split_gain=119694 79498.5 31262.2 26605.7 20656.4
threshold=7.5000000000000009 19.500000000000004 2.5000000000000004 7.5000000000000009 2022.5000000000002
decision_type=2 2 2 2 2
left_child=2 4 -1 -4 -2
right_child=1 -3 3 -5 -6
leaf_value=-0.30980034243675969 0.50434055675159806 1.0122784787132626 0.35825657801194621 -0.076662394511394019 0.091547303552980783
leaf_weight=31 22 21 22 39 27
leaf_count=31 22 21 22 39 27
internal_value=0 0.497502 -0.0512174 0.0801936 0.276883
internal_weight=0 70 92 61 49
internal_count=162 70 92 61 49
is_linear=0
shrinkage=0.01


Tree=88
num_leaves=6
num_cat=0
split_feature=0 1 0 1 2
split_gain=117312 77916.5 30640.1 26076.2 20245.4
threshold=7.5000000000000009 19.500000000000004 2.5000000000000004 7.5000000000000009 2022.5000000000002
decision_type=2 2 2 2 2
left_child=2 4 -1 -4 -2
right_child=1 -3 3 -5 -6
leaf_value=-0.30670236033778037 0.4992971229553223 1.0021556926908948 0.35467403671958231 -0.075895766722850311 0.090631826277132385
leaf_weight=31 22 21 22 39 27
leaf_count=31 22 21 22 39 27
internal_value=0 0.492527 -0.0507052 0.0793917 0.274114
internal_weight=0 70 92 61 49
internal_count=162 70 92 61 49
is_linear=0
shrinkage=0.01


Tree=89
num_leaves=7
num_cat=0
split_feature=0 1 0 3 1 1
split_gain=114977 76366 30030.3 35843.5 11784.9 10795.8
threshold=7.5000000000000009 19.500000000000004 2.5000000000000004 4.5000000000000009 11.500000000000002 10.500000000000002
decision_type=2 2 2 2 2 2
left_child=2 5 -1 4 -4 -2
right_child=1 -3 3 -5 -6 -7
leaf_value=-0.30363533327656411 0.13738704540111402 0.99213415418352402 0.42588180208206178 -0.25595169203621998 0.082590701818466186 0.43581047058105471
leaf_weight=31 27 21 20 21 20 22
leaf_count=31 27 21 20 21 20 22
internal_value=0 0.487601 -0.0501982 0.0785978 0.254236 0.271373
internal_weight=0 70 92 61 40 49
internal_count=162 70 92 61 40 49
is_linear=0
shrinkage=0.01


Tree=90
num_leaves=6
num_cat=0
split_feature=0 3 0 0 0
split_gain=142734 46330.1 44726.1 21150.8 16321
threshold=10.500000000000002 3.5000000000000004 5.5000000000000009 2.5000000000000004 4.5000000000000009
decision_type=2 2 2 2 2
left_child=1 4 3 -3 -1
right_child=-2 2 -4 -5 -6
leaf_value=0.24656659871339798 0.59463896942138672 -0.35085187280178071 -0.60745026696812032 0.098474164009094242 -0.10330115127563477
leaf_weight=24 30 20 33 22 30
leaf_count=24 30 20 33 22 30
internal_value=0 -0.171147 -0.331953 -0.115491 0.0521956
internal_weight=0 129 75 42 54
internal_count=159 129 75 42 54
is_linear=0
shrinkage=0.01


Tree=91
num_leaves=7
num_cat=0
split_feature=0 1 0 0 1 1
split_gain=139894 92843.2 116353 41071.1 41268.1 35072.8
threshold=10.500000000000002 13.500000000000002 6.5000000000000009 7.5000000000000009 20.500000000000004 6.5000000000000009
decision_type=2 2 2 2 2 2
left_child=1 2 5 4 -3 -1
right_child=-2 3 -4 -5 -6 -7
leaf_value=0.17047963094711302 0.58869258499145516 -0.3846557412364266 -1.0306997641650113 0.4709925384521485 0.21495501677195233 -0.41465068726312548
leaf_weight=20 30 22 22 20 24 21
leaf_count=20 30 22 22 20 24 21
internal_value=0 -0.169435 -0.444023 0.0926719 -0.0718153 -0.129221
internal_weight=0 129 63 66 46 41
internal_count=159 129 63 66 46 41
is_linear=0
shrinkage=0.01


Tree=92
num_leaves=6
num_cat=0
split_feature=1 3 1 3 1
split_gain=66738.8 62917.1 80801.2 10573 1130.88
threshold=19.500000000000004 3.5000000000000004 12.500000000000002 3.5000000000000004 5.5000000000000009
decision_type=2 2 2 2 2
left_child=1 -1 4 -2 -3
right_child=3 2 -4 -5 -6
leaf_value=0.14488187545537951 0.10764421753261401 -0.14936164492652532 -0.82115182201067616 0.39474685274321458 -0.046767904975197533
leaf_weight=40 23 21 24 29 22
leaf_count=40 23 21 24 29 22
internal_value=0 -0.168952 -0.356315 0.267759 -0.0968718
internal_weight=0 107 67 52 43
internal_count=159 107 67 52 43
is_linear=0
shrinkage=0.01


Tree=93
num_leaves=7
num_cat=0
split_feature=0 1 0 0 1 1
split_gain=137541 90930.2 113776 40075 39580.1 34385.1
threshold=10.500000000000002 13.500000000000002 6.5000000000000009 7.5000000000000009 20.500000000000004 6.5000000000000009
decision_type=2 2 2 2 2 2
left_child=1 2 5 4 -3 -1
right_child=-2 3 -4 -5 -6 -7
leaf_value=0.16859882879257204 0.58402426274617514 -0.37716509260914544 -1.0195915899493477 0.46539512062072752 0.21005423943201704 -0.4107666024707613
leaf_weight=20 30 22 22 20 24 21
leaf_count=20 30 22 22 20 24 21
internal_value=0 -0.167702 -0.439447 0.0916905 -0.0707898 -0.128149
internal_weight=0 129 63 66 46 41
internal_count=159 129 63 66 46 41
is_linear=0
shrinkage=0.01


Tree=94
num_leaves=7
num_cat=0
split_feature=0 1 0 0 1 1
split_gain=134804 89120.7 111512 39277.5 38792.4 33700.9
threshold=10.500000000000002 13.500000000000002 6.5000000000000009 7.5000000000000009 20.500000000000004 6.5000000000000009
decision_type=2 2 2 2 2 2
left_child=1 2 5 4 -3 -1
right_child=-2 3 -4 -5 -6 -7
leaf_value=0.16691284418106078 0.57818402862548834 -0.37339343965053562 -1.0093956778808073 0.46074115753173828 0.20795370499293012 -0.40665893645513629
leaf_weight=20 30 22 22 20 24 21
leaf_count=20 30 22 22 20 24 21
internal_value=0 -0.166025 -0.435052 0.0907736 -0.0700819 -0.126868
internal_weight=0 129 63 66 46 41
internal_count=159 129 63 66 46 41
is_linear=0
shrinkage=0.01


Tree=95
num_leaves=6
num_cat=0
split_feature=0 0 0 3 2
split_gain=59495.9 20559.1 44309.6 2722.3 825.752
threshold=3.5000000000000004 10.500000000000002 7.5000000000000009 3.5000000000000004 2023.5000000000002
decision_type=2 2 2 2 2
left_child=4 2 3 -2 -1
right_child=1 -3 -4 -5 -6
leaf_value=-0.21613605976104736 0.14215324946812222 -0.053542902628580732 0.52860184525742249 -0.0096555529700385195 -0.30095379666848615
leaf_weight=24 21 30 34 27 22
leaf_count=24 21 30 34 27 22
internal_value=0 0.170453 0.252402 0.0567608 -0.256701
internal_weight=0 112 82 48 46
internal_count=158 112 82 48 46
is_linear=0
shrinkage=0.01


Tree=96
num_leaves=5
num_cat=0
split_feature=1 0 1 0
split_gain=62555.8 114834 118007 18037.8
threshold=4.5000000000000009 7.5000000000000009 17.500000000000004 3.5000000000000004
decision_type=2 2 2 2
left_child=-1 3 -3 -2
right_child=1 2 -4 -5
leaf_value=-0.39265699881094474 -0.26703321615332054 0.93997986105935905 0.0043925456358836247 0.039102003635504305
leaf_weight=27 38 28 26 39
leaf_count=27 38 28 26 39
internal_value=0 0.135965 0.489512 -0.111978
internal_weight=0 131 54 77
internal_count=158 131 54 77
is_linear=0
shrinkage=0.01


Tree=97
num_leaves=5
num_cat=0
split_feature=1 0 1 0
split_gain=61311 112549 115658 17678.9
threshold=4.5000000000000009 7.5000000000000009 17.500000000000004 3.5000000000000004
decision_type=2 2 2 2
left_child=-1 3 -3 -2
right_child=1 2 -4 -5
leaf_value=-0.38873042954338921 -0.26436288348938292 0.93058002999850686 0.0043486201763153079 0.03871100352360652
leaf_weight=27 38 28 26 39
leaf_count=27 38 28 26 39
internal_value=0 0.134605 0.484617 -0.110858
internal_weight=0 131 54 77
internal_count=158 131 54 77
is_linear=0
shrinkage=0.01


Tree=98
num_leaves=6
num_cat=0
split_feature=1 1 1 1 1
split_gain=60090.9 55753.1 37527.1 68459.7 33370.7
threshold=4.5000000000000009 8.5000000000000018 13.500000000000002 17.500000000000004 23.500000000000004
decision_type=2 2 2 2 2
left_child=-1 -2 -3 -4 -5
right_child=1 2 3 4 -6
leaf_value=-0.38484312481350375 0.58029942533244261 -0.28480948589466237 0.63708400039445789 -0.26214916455745696 0.20951975472768147
leaf_weight=27 23 27 21 30 30
leaf_count=27 23 27 21 30 30
internal_value=0 0.133259 0.0380558 0.145678 -0.0263147
internal_weight=0 131 108 81 60
internal_count=158 131 108 81 60
is_linear=0
shrinkage=0.01


Tree=99
num_leaves=6
num_cat=0
split_feature=1 1 1 1 1
split_gain=58895.1 54643.6 36780.3 67097.3 32706.7
threshold=4.5000000000000009 8.5000000000000018 13.500000000000002 17.500000000000004 23.500000000000004
decision_type=2 2 2 2 2
left_child=-1 -2 -3 -4 -5
right_child=1 2 3 4 -6
leaf_value=-0.38099469644052014 0.57449642824090053 -0.28196137075070982 0.63071315306283182 -0.25952767491340639 0.20742454878489178
leaf_weight=27 23 27 21 30 30
leaf_count=27 23 27 21 30 30
internal_value=0 0.131926 0.0376752 0.144221 -0.0260516
internal_weight=0 131 108 81 60
internal_count=158 131 108 81 60
is_linear=0
shrinkage=0.01


Tree=100
num_leaves=5
num_cat=0
split_feature=0 2 0 3
split_gain=37589.8 78394.5 54669.8 31461.1
threshold=10.500000000000002 2022.5000000000002 6.5000000000000009 3.5000000000000004
decision_type=2 2 2 2
left_child=1 -1 3 -3
right_child=-2 2 -4 -5
leaf_value=-0.28952978783845901 0.45640357046416313 0.32325481922395766 0.65132997006177906 -0.11722201482338065
leaf_weight=40 33 31 24 34
leaf_count=40 33 31 24 34
internal_value=0 0.0781867 0.243452 0.0928516
internal_weight=0 129 89 65
internal_count=162 129 89 65
is_linear=0
shrinkage=0.01


Tree=101
num_leaves=7
num_cat=0
split_feature=1 1 1 2 1 1
split_gain=106307 77650.5 57353.5 22293.1 6960.23 888.383
threshold=9.5000000000000018 17.500000000000004 13.500000000000002 2022.5000000000002 2.5000000000000004 23.500000000000004
decision_type=2 2 2 2 2 2
left_child=4 2 -2 -3 -1 -5
right_child=1 3 -4 5 -6 -7
leaf_value=-0.038347815990448002 0.30743782906305223 -0.14487099934191933 1.0465074042479199 0.21036557242983864 -0.26882032959084762 0.30349078845977784
leaf_weight=20 21 21 21 21 38 20
leaf_count=20 21 21 21 21 38 20
internal_value=0 0.344981 0.676973 0.120084 -0.189347 0.255793
internal_weight=0 104 42 62 58 41
internal_count=162 104 42 62 58 41
is_linear=0
shrinkage=0.01


Tree=102
num_leaves=5
num_cat=0
split_feature=0 2 0 3
split_gain=37002.9 76276.4 53570.8 30910.6
threshold=10.500000000000002 2022.5000000000002 6.5000000000000009 3.5000000000000004
decision_type=2 2 2 2
left_child=1 -1 3 -3
right_child=-2 2 -4 -5
leaf_value=-0.28701327194273474 0.4509537783536044 0.31801870338378413 0.642476304769516 -0.11858796431737786
leaf_weight=40 33 31 24 34
leaf_count=40 33 31 24 34
internal_value=0 0.0757015 0.238719 0.0896398
internal_weight=0 129 89 65
internal_count=162 129 89 65
is_linear=0
shrinkage=0.01


Tree=103
num_leaves=7
num_cat=0
split_feature=1 1 1 2 1 1
split_gain=104439 76197.7 55925.6 21427.6 6853.8 881.843
threshold=9.5000000000000018 17.500000000000004 13.500000000000002 2022.5000000000002 2.5000000000000004 23.500000000000004
decision_type=2 2 2 2 2 2
left_child=4 2 -2 -3 -1 -5
right_child=1 3 -4 5 -6 -7
leaf_value=-0.039538073062896729 0.30420015357789537 -0.14230921237241653 1.0340115137894947 0.20524016334896997 -0.26824155493786461 0.29802196455001834
leaf_weight=20 21 21 21 21 38 20
leaf_count=20 21 21 21 21 38 20
internal_value=0 0.340235 0.669106 0.117451 -0.189378 0.2505
internal_weight=0 104 42 62 58 41
internal_count=162 104 42 62 58 41
is_linear=0
shrinkage=0.01


Tree=104
num_leaves=5
num_cat=0
split_feature=0 2 0 3
split_gain=36424.5 74218.6 52494.2 30369.7
threshold=10.500000000000002 2022.5000000000002 6.5000000000000009 3.5000000000000004
decision_type=2 2 2 2
left_child=1 -1 3 -3
right_child=-2 2 -4 -5
leaf_value=-0.28451500077545644 0.44558170896587956 0.3128754089724633 0.63375692109266912 -0.11989440981079551
leaf_weight=40 33 31 24 34
leaf_count=40 33 31 24 34
internal_value=0 0.0732736 0.234077 0.0865035
internal_weight=0 129 89 65
internal_count=162 129 89 65
is_linear=0
shrinkage=0.01


Tree=105
num_leaves=6
num_cat=0
split_feature=0 1 2 0 1
split_gain=86827 49147.4 60299.2 76906.2 19467.3
threshold=10.500000000000002 4.5000000000000009 2022.5000000000002 6.5000000000000009 12.500000000000002
decision_type=2 2 2 2 2
left_child=1 -1 -3 4 -4
right_child=-2 2 3 -5 -6
leaf_value=-0.62026004028320314 0.41759412884712221 -0.45189387373866574 0.10638879049391975 0.5697962414134633 -0.28308947924411659
leaf_weight=20 32 31 21 22 33
leaf_count=20 32 31 21 22 33
internal_value=0 -0.165246 -0.0801961 0.0714175 -0.131626
internal_weight=0 127 107 76 54
internal_count=159 127 107 76 54
is_linear=0
shrinkage=0.01


Tree=106
num_leaves=6
num_cat=0
split_feature=0 2 0 3 2
split_gain=85099.1 34551.7 25084.8 36554.8 17460.8
threshold=10.500000000000002 2022.5000000000002 7.5000000000000009 4.5000000000000009 2023.5000000000002
decision_type=2 2 2 2 2
left_child=1 -1 3 4 -3
right_child=-2 2 -4 -5 -6
leaf_value=-0.42084182394517433 0.41341818928718566 0.22779837976802481 0.25449820685386659 -0.44435124323918268 -0.17061673424460672
leaf_weight=37 32 22 20 26 22
leaf_count=37 32 22 20 26 22
internal_value=0 -0.163593 -0.0578352 -0.147073 0.0285908
internal_weight=0 127 90 70 44
internal_count=159 127 90 70 44
is_linear=0
shrinkage=0.01


Tree=107
num_leaves=6
num_cat=0
split_feature=0 1 1 0 0
split_gain=83405.7 48108.8 26347.9 42097.9 22429.3
threshold=10.500000000000002 4.5000000000000009 22.500000000000004 7.5000000000000009 4.5000000000000009
decision_type=2 2 2 2 2
left_child=1 -1 3 4 -3
right_child=-2 2 -4 -5 -6
leaf_value=-0.61213822603225709 0.40928401708602907 0.025766151372124169 -0.37769764858743421 0.34821200561523441 -0.36880378684997561
leaf_weight=20 32 34 23 25 25
leaf_count=20 32 34 23 25 25
internal_value=0 -0.161957 -0.0778111 0.00430065 -0.141425
internal_weight=0 127 107 84 59
internal_count=159 127 107 84 59
is_linear=0
shrinkage=0.01


Tree=108
num_leaves=6
num_cat=0
split_feature=0 2 0 3 2
split_gain=81745.9 33832.2 24110.4 35883.7 17073.8
threshold=10.500000000000002 2022.5000000000002 7.5000000000000009 4.5000000000000009 2023.5000000000002
decision_type=2 2 2 2 2
left_child=1 -1 3 4 -3
right_child=-2 2 -4 -5 -6
leaf_value=-0.41489358843983831 0.40519117355346679 0.22785736972635445 0.2505203266143799 -0.43771091607900764 -0.16611786939881065
leaf_weight=37 32 22 20 26 22
leaf_count=37 32 22 20 26 22
internal_value=0 -0.160338 -0.0556868 -0.143174 0.0308698
internal_weight=0 127 90 70 44
internal_count=159 127 90 70 44
is_linear=0
shrinkage=0.01


Tree=109
num_leaves=6
num_cat=0
split_feature=0 1 2 0 1
split_gain=80119.1 47092.5 57397.5 73168.9 18902.1
threshold=10.500000000000002 4.5000000000000009 2022.5000000000002 6.5000000000000009 12.500000000000002
decision_type=2 2 2 2 2
left_child=1 -1 -3 4 -4
right_child=-2 2 3 -5 -6
leaf_value=-0.60413492584228512 0.40113924503326415 -0.43812578764653981 0.10892475128173829 0.55855732332576402 -0.27485834006107218
leaf_weight=20 32 31 21 22 33
leaf_count=20 32 31 21 22 33
internal_value=0 -0.158734 -0.0754817 0.0724389 -0.125609
internal_weight=0 127 107 76 54
internal_count=159 127 107 76 54
is_linear=0
shrinkage=0.01


Tree=110
num_leaves=6
num_cat=0
split_feature=0 0 1 3 3
split_gain=123490 78729.6 141856 32175.5 38264.2
threshold=10.500000000000002 5.5000000000000009 14.500000000000002 4.5000000000000009 2.5000000000000004
decision_type=2 2 2 2 2
left_child=1 3 -3 4 -1
right_child=-2 2 -4 -5 -6
leaf_value=0.13722586313883464 0.52602402015968608 -1.0798182036479314 -0.023190745600947627 0.32419022696358818 -0.42745852669080103
leaf_weight=24 27 24 27 21 24
leaf_count=24 27 24 27 21 24
internal_value=0 -0.222495 -0.520427 -0.0022839 -0.145116
internal_weight=0 120 51 69 48
internal_count=147 120 51 69 48
is_linear=0
shrinkage=0.01


Tree=111
num_leaves=5
num_cat=0
split_feature=0 0 3 0
split_gain=121033 77265.2 74878.9 27214.5
threshold=10.500000000000002 4.5000000000000009 3.5000000000000004 2.5000000000000004
decision_type=2 2 2 2
left_child=1 3 -3 -1
right_child=-2 2 -4 -5
leaf_value=-0.16285213674817764 0.52076378716362848 -0.063521447522299629 -0.74894102753819658 0.28210726031550654
leaf_weight=28 27 28 37 27
leaf_count=28 27 28 37 27
internal_value=0 -0.22027 -0.453683 0.0555825
internal_weight=0 120 65 55
internal_count=147 120 65 55
is_linear=0
shrinkage=0.01


Tree=112
num_leaves=6
num_cat=0
split_feature=0 0 3 3 3
split_gain=118624 75809.1 100295 31547.9 37269.3
threshold=10.500000000000002 5.5000000000000009 3.5000000000000004 4.5000000000000009 2.5000000000000004
decision_type=2 2 2 2 2
left_child=1 3 -3 4 -1
right_child=-2 2 -4 -5 -6
leaf_value=0.13523577332496645 0.51555615036575886 0.041682115554809565 -0.86661727090035712 0.32129525411696663 -0.42205937226613366
leaf_weight=24 27 20 31 21 24
leaf_count=24 27 20 31 21 24
internal_value=0 -0.218067 -0.510421 -0.00197922 -0.143412
internal_weight=0 120 51 69 48
internal_count=147 120 51 69 48
is_linear=0
shrinkage=0.01


Tree=113
num_leaves=5
num_cat=0
split_feature=0 0 1 0
split_gain=116264 74447.5 139287 26514.8
threshold=10.500000000000002 4.5000000000000009 14.500000000000002 2.5000000000000004
decision_type=2 2 2 2
left_child=1 3 -3 -1
right_child=-2 2 -4 -5
leaf_value=-0.16071916512080603 0.51040059548837169 -0.88702221260351299 0.039789339803880261 0.2784831548620153
leaf_weight=28 27 34 31 27
leaf_count=28 27 34 31 27
internal_value=0 -0.215886 -0.445004 0.0548892
internal_weight=0 120 65 55
internal_count=147 120 65 55
is_linear=0
shrinkage=0.01


Tree=114
num_leaves=6
num_cat=0
split_feature=0 0 1 1 2
split_gain=113950 73376.8 136445 20823.9 9822.62
threshold=10.500000000000002 5.5000000000000009 14.500000000000002 8.5000000000000018 2023.5000000000002
decision_type=2 2 2 2 2
left_child=1 3 -3 -1 -5
right_child=-2 2 -4 4 -6
leaf_value=0.24454651915508771 0.50529655315257882 -1.0499706330895424 -0.013694085368403681 -0.2579038637161255 0.035464195978073848
leaf_weight=23 27 24 27 25 21
leaf_count=23 27 24 27 25 21
internal_value=0 -0.213728 -0.501354 -0.00113447 -0.123975
internal_weight=0 120 51 69 46
internal_count=147 120 51 69 46
is_linear=0
shrinkage=0.01


Tree=115
num_leaves=6
num_cat=0
split_feature=1 0 0 1 1
split_gain=69225.2 81604.1 193824 42726.7 7156.42
threshold=4.5000000000000009 10.500000000000002 7.5000000000000009 10.500000000000002 22.500000000000004
decision_type=2 2 2 2 2
left_child=-1 2 3 -2 -5
right_child=1 -3 -4 4 -6
leaf_value=-0.40143844922383631 -0.34012592156728111 -0.40089967901056461 0.96716224300450293 0.26208171159029009 0.03364735722541809
leaf_weight=27 24 22 29 32 24
leaf_count=27 24 22 29 32 24
internal_value=0 0.154649 0.266778 0.0128891 0.164181
internal_weight=0 131 109 80 56
internal_count=158 131 109 80 56
is_linear=0
shrinkage=0.01


Tree=116
num_leaves=6
num_cat=0
split_feature=1 0 0 1 1
split_gain=67847.7 79980.2 189967 41876.5 7014.01
threshold=4.5000000000000009 10.500000000000002 7.5000000000000009 10.500000000000002 22.500000000000004
decision_type=2 2 2 2 2
left_child=-1 2 3 -2 -5
right_child=1 -3 -4 4 -6
leaf_value=-0.39742406703807687 -0.33672466119130456 -0.3968906714699485 0.95749062986209488 0.25946089707314968 0.033310893774032596
leaf_weight=27 24 22 29 32 24
leaf_count=27 24 22 29 32 24
internal_value=0 0.153103 0.264111 0.0127602 0.162539
internal_weight=0 131 109 80 56
internal_count=158 131 109 80 56
is_linear=0
shrinkage=0.01


Tree=117
num_leaves=6
num_cat=0
split_feature=1 0 0 1 1
split_gain=66497.5 78388.6 186186 41043.1 6874.43
threshold=4.5000000000000009 10.500000000000002 7.5000000000000009 10.500000000000002 22.500000000000004
decision_type=2 2 2 2 2
left_child=-1 2 3 -2 -5
right_child=1 -3 -4 4 -6
leaf_value=-0.39344984019244161 -0.33335742394129436 -0.39292177373712711 0.94791573201787882 0.25686628874391315 0.03297775189081828
leaf_weight=27 24 22 29 32 24
leaf_count=27 24 22 29 32 24
internal_value=0 0.151572 0.261469 0.0126326 0.160914
internal_weight=0 131 109 80 56
internal_count=158 131 109 80 56
is_linear=0
shrinkage=0.01


Tree=118
num_leaves=6
num_cat=0
split_feature=1 0 0 1 1
split_gain=65174.2 76828.6 182481 40226.4 6737.63
threshold=4.5000000000000009 10.500000000000002 7.5000000000000009 10.500000000000002 22.500000000000004
decision_type=2 2 2 2 2
left_child=-1 2 3 -2 -5
right_child=1 -3 -4 4 -6
leaf_value=-0.38951534659774217 -0.33002385298411052 -0.38899254192005506 0.93843658513036277 0.25429762668907641 0.032648001511891685
leaf_weight=27 24 22 29 32 24
leaf_count=27 24 22 29 32 24
internal_value=0 0.150056 0.258855 0.0125063 0.159305
internal_weight=0 131 109 80 56
internal_count=158 131 109 80 56
is_linear=0
shrinkage=0.01


Tree=119
num_leaves=6
num_cat=0
split_feature=1 0 0 1 1
split_gain=63877.2 75299.8 178850 39425.9 6603.55
threshold=4.5000000000000009 10.500000000000002 7.5000000000000009 10.500000000000002 22.500000000000004
decision_type=2 2 2 2 2
left_child=-1 2 3 -2 -5
right_child=1 -3 -4 4 -6
leaf_value=-0.38562017299510815 -0.32672358671824137 -0.38510263269597839 0.92905220689444701 0.25175463583320379 0.03232151985168457
leaf_weight=27 24 22 29 32 24
leaf_count=27 24 22 29 32 24
internal_value=0 0.148555 0.256266 0.0123812 0.157712
internal_weight=0 131 109 80 56
internal_count=158 131 109 80 56
is_linear=0
shrinkage=0.01


Tree=120
num_leaves=6
num_cat=0
split_feature=1 2 1 3 1
split_gain=52968.5 70082.9 34989.2 12816.7 341.338
threshold=3.5000000000000004 2022.5000000000002 19.500000000000004 3.5000000000000004 16.500000000000004
decision_type=2 2 2 2 2
left_child=-1 4 3 -3 -2
right_child=1 2 -4 -5 -6
leaf_value=0.43627786221711534 -0.38702300117129368 0.1234453178587414 0.33399325399687796 -0.18586327630120356 -0.44338746482675723
leaf_weight=23 21 21 33 37 22
leaf_count=23 21 21 33 37 22
internal_value=0 -0.0831703 0.074035 -0.0738722 -0.415861
internal_weight=0 134 91 58 43
internal_count=157 134 91 58 43
is_linear=0
shrinkage=0.01


Tree=121
num_leaves=6
num_cat=0
split_feature=2 0 0 3 3
split_gain=40578.3 67001.8 37242.2 28115.2 28967.4
threshold=2022.5000000000002 9.5000000000000018 2.5000000000000004 2.5000000000000004 4.5000000000000009
decision_type=2 2 2 2 2
left_child=1 -1 -2 -4 -5
right_child=2 -3 3 4 -6
leaf_value=0.069323926136411473 -0.24404796769221623 -0.67236140387398868 -0.077116509056091312 0.55537569488797878 0.10814721171061198
leaf_weight=29 24 21 25 28 30
leaf_count=29 24 21 25 28 30
internal_value=0 -0.242184 0.102896 0.203217 0.324051
internal_weight=0 50 107 83 58
internal_count=157 50 107 83 58
is_linear=0
shrinkage=0.01


Tree=122
num_leaves=6
num_cat=0
split_feature=1 1 0 0 1
split_gain=51817.5 56593.7 53569.3 45607.1 13151.3
threshold=3.5000000000000004 22.500000000000004 9.5000000000000018 6.5000000000000009 10.500000000000002
decision_type=2 2 2 2 2
left_child=-1 2 3 4 -2
right_child=1 -3 -4 -5 -6
leaf_value=0.43157539865244993 -0.39741360165856099 0.28470947146415709 -0.56090346698103288 0.34045688810802643 -0.075518786867459622
leaf_weight=23 22 32 29 21 30
leaf_count=23 22 32 29 21 30
internal_value=0 -0.0821983 -0.197307 -0.0528639 -0.211705
internal_weight=0 134 102 73 52
internal_count=157 134 102 73 52
is_linear=0
shrinkage=0.01


Tree=123
num_leaves=6
num_cat=0
split_feature=1 1 0 0 1
split_gain=50786.4 55467.5 52503.2 44699.5 12889.6
threshold=3.5000000000000004 22.500000000000004 9.5000000000000018 6.5000000000000009 10.500000000000002
decision_type=2 2 2 2 2
left_child=-1 2 3 4 -2
right_child=1 -3 -4 -5 -6
leaf_value=0.42725964919380521 -0.3934394585002553 0.28186237931251529 -0.55529442293890596 0.33705232256934758 -0.074763601700464893
leaf_weight=23 22 32 29 21 30
leaf_count=23 22 32 29 21 30
internal_value=0 -0.0813763 -0.195333 -0.0523353 -0.209588
internal_weight=0 134 102 73 52
internal_count=157 134 102 73 52
is_linear=0
shrinkage=0.01


Tree=124
num_leaves=6
num_cat=0
split_feature=2 0 0 3 3
split_gain=39777.3 64130.6 36552.4 27478.6 28151.6
threshold=2022.5000000000002 9.5000000000000018 2.5000000000000004 2.5000000000000004 4.5000000000000009
decision_type=2 2 2 2 2
left_child=1 -1 -2 -4 -5
right_child=2 -3 3 4 -6
leaf_value=0.065116866045984725 -0.24170191322763759 -0.66050257711183469 -0.075740310096740718 0.54890364408493042 0.10801807721455893
leaf_weight=29 24 21 25 28 30
leaf_count=29 24 21 25 28 30
internal_value=0 -0.239643 0.102014 0.201402 0.320859
internal_weight=0 50 107 83 58
internal_count=157 50 107 83 58
is_linear=0
shrinkage=0.01


Tree=125
num_leaves=5
num_cat=0
split_feature=0 3 3 0
split_gain=27002 53396.5 42653.8 23599.9
threshold=2.5000000000000004 4.5000000000000009 5.5000000000000009 8.5000000000000018
decision_type=2 2 2 2
left_child=-1 3 -3 -2
right_child=1 2 -4 -5
leaf_value=-0.18995663800547199 0.14292234681901478 -0.41908174276351928 0.15542617934090752 0.49184312330351937
leaf_weight=31 42 24 28 36
leaf_count=31 42 24 28 36
internal_value=0 0.138485 -0.109731 0.303963
internal_weight=0 130 52 78
internal_count=161 130 52 78
is_linear=0
shrinkage=0.01


Tree=126
num_leaves=5
num_cat=0
split_feature=0 3 3 0
split_gain=26464.7 52334 41805 23130.3
threshold=2.5000000000000004 4.5000000000000009 5.5000000000000009 8.5000000000000018
decision_type=2 2 2 2
left_child=-1 3 -3 -2
right_child=1 2 -4 -5
leaf_value=-0.18805706151070134 0.1414931150845119 -0.41489097118377688 0.1538719188315528 0.48692470567093959
leaf_weight=31 42 24 28 36
leaf_count=31 42 24 28 36
internal_value=0 0.1371 -0.108634 0.300923
internal_weight=0 130 52 78
internal_count=161 130 52 78
is_linear=0
shrinkage=0.01


Tree=127
num_leaves=6
num_cat=0
split_feature=1 1 0 1 0
split_gain=49649.6 73589.9 31361.6 13890.5 37650
threshold=19.500000000000004 12.500000000000002 6.5000000000000009 6.5000000000000009 7.5000000000000009
decision_type=2 2 2 2 2
left_child=1 3 -2 4 -1
right_child=2 -3 -4 -5 -6
leaf_value=0.5108153160413107 0.084951622772216795 -0.4315970326521818 0.58584388370513918 -0.032290109172463416 -0.06897823288327172
leaf_weight=24 25 34 25 32 21
leaf_count=24 25 34 25 32 21
internal_value=0 -0.0441131 0.335398 0.126984 0.240245
internal_weight=0 111 50 77 45
internal_count=161 111 50 77 45
is_linear=0
shrinkage=0.01


Tree=128
num_leaves=6
num_cat=0
split_feature=1 1 0 1 0
split_gain=48661.6 72125.5 30737.5 13614 36900.7
threshold=19.500000000000004 12.500000000000002 6.5000000000000009 6.5000000000000009 7.5000000000000009
decision_type=2 2 2 2 2
left_child=1 3 -2 4 -1
right_child=2 -3 -4 -5 -6
leaf_value=0.50570716222127277 0.084102087402343748 -0.427281062414541 0.57998544807434083 -0.031967203766107559 -0.068288433438255677
leaf_weight=24 25 34 25 32 21
leaf_count=24 25 34 25 32 21
internal_value=0 -0.043672 0.332044 0.125714 0.237843
internal_weight=0 111 50 77 45
internal_count=161 111 50 77 45
is_linear=0
shrinkage=0.01


Tree=129
num_leaves=6
num_cat=0
split_feature=1 1 3 1 3
split_gain=47693.2 70690.2 52417.3 13343.1 17875.2
threshold=19.500000000000004 12.500000000000002 3.5000000000000004 6.5000000000000009 3.5000000000000004
decision_type=2 2 2 2 2
left_child=1 3 -2 4 -1
right_child=2 -3 -4 -5 -6
leaf_value=0.45829421281814575 -0.022085291821023693 -0.42300825975397055 0.62756029411598491 -0.0316475273668766 0.05720003967285156
leaf_weight=20 23 34 27 32 25
leaf_count=20 23 34 27 32 25
internal_value=0 -0.0432353 0.328723 0.124457 0.235464
internal_weight=0 111 50 77 45
internal_count=161 111 50 77 45
is_linear=0
shrinkage=0.01


Tree=130
num_leaves=6
num_cat=0
split_feature=3 0 2 0 2
split_gain=61336.3 119921 103773 19364.5 29672.6
threshold=4.5000000000000009 5.5000000000000009 2022.5000000000002 7.5000000000000009 2023.5000000000002
decision_type=2 2 2 2 2
left_child=2 -2 -1 4 -4
right_child=1 -3 3 -5 -6
leaf_value=0.4735314195882529 0.12340985518235427 -0.7627873289907301 0.13390098571777345 -0.44699927288552993 -0.33492398888976488
leaf_weight=32 26 37 27 23 27
leaf_count=32 26 37 27 23 27
internal_value=0 -0.397055 -0.00509724 -0.204008 -0.100512
internal_weight=0 63 109 77 54
internal_count=172 63 109 77 54
is_linear=0
shrinkage=0.01


Tree=131
num_leaves=6
num_cat=0
split_feature=3 0 0 1 1
split_gain=60115.7 117535 101776 71521.4 119036
threshold=4.5000000000000009 5.5000000000000009 2.5000000000000004 20.500000000000004 5.5000000000000009
decision_type=2 2 2 2 2
left_child=2 -2 -1 4 -4
right_child=1 -3 3 -5 -6
leaf_value=-0.63056664395899997 0.12217575953556942 -0.75515944703205207 0.52641346176465353 0.60976979374885565 -0.36441356405615805
leaf_weight=21 26 37 24 24 40
leaf_count=21 26 37 24 24 40
internal_value=0 -0.393085 -0.00504627 0.144226 -0.0303534
internal_weight=0 63 109 88 64
internal_count=172 63 109 88 64
is_linear=0
shrinkage=0.01


Tree=132
num_leaves=6
num_cat=0
split_feature=3 0 0 1 1
split_gain=58919.4 115196 99750.8 70098.1 116667
threshold=4.5000000000000009 5.5000000000000009 2.5000000000000004 20.500000000000004 5.5000000000000009
decision_type=2 2 2 2 2
left_child=2 -2 -1 4 -4
right_child=1 -3 3 -5 -6
leaf_value=-0.62426097432772321 0.12095399709848258 -0.74760785220442583 0.52114933649698891 0.60367210268974303 -0.36076941705495119
leaf_weight=21 26 37 24 24 40
leaf_count=21 26 37 24 24 40
internal_value=0 -0.389154 -0.0049958 0.142783 -0.0300499
internal_weight=0 63 109 88 64
internal_count=172 63 109 88 64
is_linear=0
shrinkage=0.01


Tree=133
num_leaves=6
num_cat=0
split_feature=3 0 2 0 2
split_gain=57746.9 112903 101031 19631.9 29303.3
threshold=4.5000000000000009 5.5000000000000009 2022.5000000000002 7.5000000000000009 2023.5000000000002
decision_type=2 2 2 2 2
left_child=2 -2 -1 4 -4
right_child=1 -3 3 -5 -6
leaf_value=0.46731788221746684 0.11974445343017578 -0.74013178102068 0.13594622929890951 -0.44587427470995034 -0.32995220334441577
leaf_weight=32 26 37 27 23 27
leaf_count=32 26 37 27 23 27
internal_value=0 -0.385262 -0.00494585 -0.201211 -0.097003
internal_weight=0 63 109 77 54
internal_count=172 63 109 77 54
is_linear=0
shrinkage=0.01


Tree=134
num_leaves=6
num_cat=0
split_feature=3 0 2 0 2
split_gain=56597.7 110656 99020.5 19241.2 28720.1
threshold=4.5000000000000009 5.5000000000000009 2022.5000000000002 7.5000000000000009 2023.5000000000002
decision_type=2 2 2 2 2
left_child=2 -2 -1 4 -4
right_child=1 -3 3 -5 -6
leaf_value=0.46264469558373095 0.118546996483436 -0.73273046274442932 0.13458676444159615 -0.44141551639722743 -0.32665267679426407
leaf_weight=32 26 37 27 23 27
leaf_count=32 26 37 27 23 27
internal_value=0 -0.38141 -0.00489639 -0.199199 -0.096033
internal_weight=0 63 109 77 54
internal_count=172 63 109 77 54
is_linear=0
shrinkage=0.01


Tree=135
num_leaves=6
num_cat=0
split_feature=1 3 1 1 1
split_gain=79868.9 56708.3 94116.6 30031.3 23916.3
threshold=23.500000000000004 3.5000000000000004 15.500000000000002 7.5000000000000009 7.5000000000000009
decision_type=2 2 2 2 2
left_child=1 4 3 -3 -1
right_child=-2 2 -4 -5 -6
leaf_value=0.48953078079223633 0.57275789737701421 -0.20597978421619961 -0.72703443020582204 0.26144048854156776 0.056040706004415242
leaf_weight=20 26 28 24 27 35
leaf_count=20 26 28 24 27 35
internal_value=0 -0.0328756 -0.204524 0.0234811 0.213673
internal_weight=0 134 79 55 55
internal_count=160 134 79 55 55
is_linear=0
shrinkage=0.01


Tree=136
num_leaves=6
num_cat=0
split_feature=3 0 0 3 0
split_gain=31049.7 34514.2 28413 7043.4 4939
threshold=3.5000000000000004 10.500000000000002 5.5000000000000009 1.5000000000000002 5.5000000000000009
decision_type=2 2 2 2 2
left_child=3 2 -2 -1 -5
right_child=1 -3 -4 4 -6
leaf_value=0.36039463224411011 0.042664932182856968 0.301262930007208 -0.35746638619237475 0.039622254371643066 0.2540262564745816
leaf_weight=25 35 21 36 21 22
leaf_count=25 35 21 36 21 22
internal_value=0 -0.0548804 -0.160219 0.226919 0.149317
internal_weight=0 92 71 68 43
internal_count=160 92 71 68 43
is_linear=0
shrinkage=0.01


Tree=137
num_leaves=6
num_cat=0
split_feature=1 3 1 0 1
split_gain=78311.2 54750 92328 42783.7 29389.9
threshold=23.500000000000004 3.5000000000000004 15.500000000000002 4.5000000000000009 7.5000000000000009
decision_type=2 2 2 2 2
left_child=1 3 4 -1 -3
right_child=-2 2 -4 -5 -6
leaf_value=0.55062758467414163 0.5664828542562631 -0.20304302036762237 -0.71939569542805359 -0.018686562270829172 0.25935912273548267
leaf_weight=22 26 28 24 33 27
leaf_count=22 26 28 24 33 27
internal_value=0 -0.0332153 -0.201873 0.209039 0.0239544
internal_weight=0 134 79 55 55
internal_count=160 134 79 55 55
is_linear=0
shrinkage=0.01


Tree=138
num_leaves=6
num_cat=0
split_feature=1 1 1 2 0
split_gain=76752.8 45568.9 47310.3 33043.3 51004.4
threshold=23.500000000000004 12.500000000000002 19.500000000000004 2022.5000000000002 5.5000000000000009
decision_type=2 2 2 2 2
left_child=1 3 -3 -1 -5
right_child=-2 2 -4 4 -6
leaf_value=0.42454278993606565 0.56081804642310507 -0.47562791432653156 0.11616537700999867 0.2610547496532572 -0.3695289042721624
leaf_weight=25 26 35 22 29 23
leaf_count=25 26 35 22 29 23
internal_value=0 -0.0328832 -0.247216 0.125779 -0.0178573
internal_weight=0 134 57 77 52
internal_count=160 134 57 77 52
is_linear=0
shrinkage=0.01


Tree=139
num_leaves=6
num_cat=0
split_feature=1 3 1 0 1
split_gain=75225.4 53506.8 89970.1 41581.1 28939.7
threshold=23.500000000000004 3.5000000000000004 15.500000000000002 4.5000000000000009 7.5000000000000009
decision_type=2 2 2 2 2
left_child=1 3 4 -1 -3
right_child=-2 2 -4 -5 -6
leaf_value=0.54368754040111189 0.55520986612026502 -0.20161296146256583 -0.71015784919261937 -0.017568453333594584 0.25723338864467765
leaf_weight=22 26 28 24 33 27
leaf_count=22 26 28 24 33 27
internal_value=0 -0.0325543 -0.199287 0.206934 0.0236389
internal_weight=0 134 79 55 55
internal_count=160 134 79 55 55
is_linear=0
shrinkage=0.01


Tree=140
num_leaves=6
num_cat=0
split_feature=0 1 1 0 1
split_gain=34309.5 63839.8 46672.8 46194.7 9475.92
threshold=5.5000000000000009 19.500000000000004 17.500000000000004 8.5000000000000018 7.5000000000000009
decision_type=2 2 2 2 2
left_child=2 3 4 -2 -1
right_child=1 -3 -4 -5 -6
leaf_value=0.45483251905441285 -0.73208074390888211 0.22632242569556604 -0.23112324255484124 -0.16158745056390764 0.16983749594007219
leaf_weight=20 22 26 27 40 28
leaf_count=20 22 26 27 40 28
internal_value=0 -0.189601 0.10149 -0.364021 0.288585
internal_weight=0 88 75 62 48
internal_count=163 88 75 62 48
is_linear=0
shrinkage=0.01


Tree=141
num_leaves=6
num_cat=0
split_feature=0 1 1 0 1
split_gain=33626.8 62569.3 45744 45275.4 9287.35
threshold=5.5000000000000009 19.500000000000004 17.500000000000004 8.5000000000000018 7.5000000000000009
decision_type=2 2 2 2 2
left_child=2 3 4 -2 -1
right_child=1 -3 -4 -5 -6
leaf_value=0.45028419113159179 -0.72475994505665531 0.22405921349158653 -0.22881201779400862 -0.15997156371176244 0.1681391383920397
leaf_weight=20 22 26 27 40 28
leaf_count=20 22 26 27 40 28
internal_value=0 -0.187705 0.100475 -0.36038 0.2857
internal_weight=0 88 75 62 48
internal_count=163 88 75 62 48
is_linear=0
shrinkage=0.01


Tree=142
num_leaves=6
num_cat=0
split_feature=0 1 1 2 0
split_gain=32957.6 61324.2 44833.7 79781.9 44374.4
threshold=5.5000000000000009 19.500000000000004 17.500000000000004 2023.5000000000002 8.5000000000000018
decision_type=2 2 2 2 2
left_child=2 4 3 -1 -2
right_child=1 -3 -4 -5 -6
leaf_value=0.67388645668029779 -0.71751232894984163 0.22181862390958348 -0.22652390162150066 -0.1422051183037136 -0.1583718579262495
leaf_weight=25 22 26 27 23 40
leaf_count=25 22 26 27 23 40
internal_value=0 -0.185828 0.0994706 0.282843 -0.356777
internal_weight=0 88 75 48 62
internal_count=163 88 75 48 62
is_linear=0
shrinkage=0.01


Tree=143
num_leaves=6
num_cat=0
split_feature=0 1 1 0 1
split_gain=32301.7 60103.9 43941.5 43491.4 9121.54
threshold=5.5000000000000009 19.500000000000004 17.500000000000004 8.5000000000000018 7.5000000000000009
decision_type=2 2 2 2 2
left_child=2 3 4 -2 -1
right_child=1 -3 -4 -5 -6
leaf_value=0.44312295341491698 -0.7103372302922335 0.21960047134986291 -0.22425865314624929 -0.15678811890631913 0.1635078740119934
leaf_weight=20 22 26 27 40 28
leaf_count=20 22 26 27 40 28
internal_value=0 -0.18397 0.0984759 -0.353209 0.280014
internal_weight=0 88 75 62 48
internal_count=163 88 75 62 48
is_linear=0
shrinkage=0.01


Tree=144
num_leaves=6
num_cat=0
split_feature=0 1 1 2 0
split_gain=31658.9 58907.8 43067.1 78213.1 42625.9
threshold=5.5000000000000009 19.500000000000004 17.500000000000004 2023.5000000000002 8.5000000000000018
decision_type=2 2 2 2 2
left_child=2 4 3 -1 -2
right_child=1 -3 -4 -5 -6
leaf_value=0.66439404239654543 -0.70323382811112833 0.21740446090698243 -0.2220160632663303 -0.14363387315169626 -0.1552202534712851
leaf_weight=25 22 26 27 23 40
leaf_count=25 22 26 27 23 40
internal_value=0 -0.18213 0.0974912 0.277214 -0.349677
internal_weight=0 88 75 48 62
internal_count=163 88 75 48 62
is_linear=0
shrinkage=0.01


Tree=145
num_leaves=6
num_cat=0
split_feature=1 1 1 3 3
split_gain=62057.1 43632.1 63576.1 44432.2 26373.7
threshold=6.5000000000000009 10.500000000000002 17.500000000000004 4.5000000000000009 3.5000000000000004
decision_type=2 2 2 2 2
left_child=4 -2 -3 -4 -1
right_child=1 2 3 -5 -6
leaf_value=0.47234769691120498 -0.57114911226125864 0.23089062581743514 -0.096620627373265919 -0.6507978972144749 -0.0023897588491439822
leaf_weight=22 26 35 39 23 25
leaf_count=22 26 35 39 23 25
internal_value=0 -0.20736 -0.109849 -0.302203 0.219828
internal_weight=0 123 97 62 47
internal_count=170 123 97 62 47
is_linear=0
shrinkage=0.01


Tree=146
num_leaves=7
num_cat=0
split_feature=1 0 0 1 1 0
split_gain=60822.1 52765.8 68006.9 21105.7 19318.8 12305.5
threshold=6.5000000000000009 10.500000000000002 7.5000000000000009 11.500000000000002 22.500000000000004 5.5000000000000009
decision_type=2 2 2 2 2 2
left_child=5 2 3 -2 -5 -1
right_child=1 -3 -4 4 -6 -7
leaf_value=0.39767333076113742 -0.54465113735198978 -0.63716285207997192 0.31222581771335434 -0.0037578042091861849 -0.39658436366489958 0.072209462340061481
leaf_weight=21 20 23 28 31 21 26
leaf_count=21 20 23 28 31 21 26
internal_value=0 -0.205286 -0.105955 -0.26858 -0.162399 0.217629
internal_weight=0 123 100 72 52 47
internal_count=170 123 100 72 52 47
is_linear=0
shrinkage=0.01


Tree=147
num_leaves=7
num_cat=0
split_feature=1 0 0 1 1 0
split_gain=59611.8 51715.7 66653.6 20685.7 18934.3 12060.7
threshold=6.5000000000000009 10.500000000000002 7.5000000000000009 11.500000000000002 22.500000000000004 5.5000000000000009
decision_type=2 2 2 2 2 2
left_child=5 2 3 -2 -5 -1
right_child=1 -3 -4 4 -6 -7
leaf_value=0.39369661308470227 -0.53920462512969969 -0.63079124865324598 0.30910356939903327 -0.0037202326713069796 -0.39261852536882674 0.071487368356723049
leaf_weight=21 20 23 28 31 21 26
leaf_count=21 20 23 28 31 21 26
internal_value=0 -0.203233 -0.104895 -0.265895 -0.160775 0.215453
internal_weight=0 123 100 72 52 47
internal_count=170 123 100 72 52 47
is_linear=0
shrinkage=0.01


Tree=148
num_leaves=7
num_cat=0
split_feature=3 0 3 0 0 0
split_gain=47108 54986.4 58184.3 101410 43004.5 24411.8
threshold=4.5000000000000009 2.5000000000000004 1.5000000000000002 9.5000000000000018 5.5000000000000009 5.5000000000000009
decision_type=2 2 2 2 2 2
left_child=1 -1 -3 4 -4 -2
right_child=5 2 3 -5 -6 -7
leaf_value=-0.40230015321211382 -0.072208918818721074 -0.31149877586960789 0.28850978419894263 -0.22504107516744865 0.9364337434768677 -0.46767317866151398
leaf_weight=22 27 20 21 23 20 37
leaf_count=22 27 20 21 23 20 37
internal_value=0 0.0427439 0.159303 0.306429 0.60457 -0.300837
internal_weight=0 106 84 64 41 64
internal_count=170 106 84 64 41 64
is_linear=0
shrinkage=0.01


Tree=149
num_leaves=7
num_cat=0
split_feature=1 0 0 3 1 3
split_gain=58334.5 50116.4 65380 25703.2 20233.1 49582.7
threshold=6.5000000000000009 10.500000000000002 7.5000000000000009 3.5000000000000004 11.500000000000002 3.5000000000000004
decision_type=2 2 2 2 2 2
left_child=3 2 4 -1 -2 -6
right_child=1 -3 -4 -5 5 -7
leaf_value=0.46322032061490148 -0.53319759273529055 -0.62114043194314716 0.30658436633646491 -0.005443527126312255 0.1878048610687256 -0.43392821476377291
leaf_weight=22 20 23 28 25 23 29
leaf_count=22 20 23 28 25 23 29
internal_value=0 -0.200246 -0.10344 0.213931 -0.262894 -0.158931
internal_weight=0 123 100 47 72 52
internal_count=170 123 100 47 72 52
is_linear=0
shrinkage=0.01


Tree=150
num_leaves=6
num_cat=0
split_feature=0 0 1 1 0
split_gain=29119.6 66645.2 61594.6 45572.8 6161.21
threshold=10.500000000000002 5.5000000000000009 10.500000000000002 8.5000000000000018 2.5000000000000004
decision_type=2 2 2 2 2
left_child=1 3 -3 -1 -5
right_child=-2 2 -4 4 -6
leaf_value=0.65345550537109376 0.43408116176210598 -0.61312659232389355 0.10331482557313783 0.22551064411799115 0.0053039794498019746
leaf_weight=22 29 21 28 24 27
leaf_count=22 29 21 28 24 27
internal_value=0 0.0815462 -0.203731 0.273034 0.108931
internal_weight=0 122 49 73 51
internal_count=151 122 49 73 51
is_linear=0
shrinkage=0.01


Tree=151
num_leaves=6
num_cat=0
split_feature=0 0 1 1 0
split_gain=28540.1 65319 60368.9 44665.9 6038.6
threshold=10.500000000000002 5.5000000000000009 10.500000000000002 8.5000000000000018 2.5000000000000004
decision_type=2 2 2 2 2
left_child=1 3 -3 -1 -5
right_child=-2 2 -4 4 -6
